{"learner":{"attributes":{"best_iteration":"12","best_ntree_limit":"13","scikit_learn":"{\"use_label_encoder\": false, \"n_estimators\": 13, \"objective\": \"binary:hinge\", \"max_depth\": 8, \"max_leaves\": null, \"max_bin\": null, \"grow_policy\": null, \"learning_rate\": 0.2, \"verbosity\": null, \"booster\": \"dart\", \"tree_method\": null, \"gamma\": null, \"min_child_weight\": 20, \"max_delta_step\": null, \"subsample\": 0.5, \"sampling_method\": null, \"colsample_bytree\": 0.3, \"colsample_bylevel\": null, \"colsample_bynode\": null, \"reg_alpha\": null, \"reg_lambda\": null, \"scale_pos_weight\": 3.0630782169890662, \"base_score\": null, \"missing\": -999, \"num_parallel_tree\": null, \"random_state\": null, \"n_jobs\": null, \"monotone_constraints\": null, \"interaction_constraints\": null, \"importance_type\": null, \"gpu_id\": null, \"validate_parameters\": null, \"predictor\": null, \"enable_categorical\": false, \"max_cat_to_onehot\": null, \"eval_metric\": null, \"early_stopping_rounds\": null, \"callbacks\": null, \"kwargs\": {\"seed\": 1337, \"nthread\": 4, \"silent\": 1}, \"classes_\": [0, 1], \"n_classes_\": 2, \"_estimator_type\": \"classifier\"}"},"feature_names":["ECG_Rate_Mean","HRV_MeanNN","HRV_SDNN","HRV_SDANN1","HRV_SDNNI1","HRV_SDANN2","HRV_SDNNI2","HRV_SDANN5","HRV_SDNNI5","HRV_RMSSD","HRV_SDSD","HRV_CVNN","HRV_CVSD","HRV_MedianNN","HRV_MadNN","HRV_MCVNN","HRV_IQRNN","HRV_pNN50","HRV_pNN20","HRV_HTI","HRV_TINN","HRV_ULF","HRV_VLF","HRV_LF","HRV_HF","HRV_VHF","HRV_LFHF","HRV_LFn","HRV_HFn","HRV_LnHF","HRV_SD1","HRV_SD2","HRV_SD1SD2","HRV_S","HRV_CSI","HRV_CVI","HRV_CSI_Modified","HRV_PIP","HRV_IALS","HRV_PSS","HRV_PAS","HRV_GI","HRV_SI","HRV_AI","HRV_PI","HRV_C1d","HRV_C1a","HRV_SD1d","HRV_SD1a","HRV_C2d","HRV_C2a","HRV_SD2d","HRV_SD2a","HRV_Cd","HRV_Ca","HRV_SDNNd","HRV_SDNNa","HRV_DFA_alpha1","HRV_DFA_alpha1_ExpRange","HRV_DFA_alpha1_ExpMean","HRV_DFA_alpha1_DimRange","HRV_DFA_alpha1_DimMean","HRV_ApEn","HRV_SampEn","HRV_ShanEn","HRV_FuzzyEn","HRV_MSE","HRV_CMSE","HRV_RCMSE","HRV_CD","HRV_HFD","HRV_KFD","HRV_LZC","PQMean","PQMin","PQMax","PQStd","PQSkew","PQKurt","PRMean","PRMin","PRMax","PRStd","PRSkew","PRKurt","PSMean","PSMin","PSMax","PSStd","PSSkew","PSKurt","PTMean","PTMin","PTMax","PTStd","PTSkew","PTKurt","QRMean","QRMin","QRMax","QRStd","QRSkew","QRKurt","QSMean","QSMin","QSMax","QSStd","QSSkew","QSKurt","QTMean","QTMin","QTMax","QTStd","QTSkew","QTKurt","RSMean","RSMin","RSMax","RSStd","RSSkew","RSKurt","RTMean","RTMin","RTMax","RTStd","RTSkew","RTKurt","STMean","STMin","STMax","STStd","STSkew","STKurt","RdPMean","RdPMin","RdPMax","RdPStd","RdPSkew","RdPKurt","RdQMean","RdQMin","RdQMax","RdQStd","RdQSkew","RdQKurt","RdTMean","RdTMin","RdTMax","RdTStd","RdTSkew","RdTKurt","RdSMean","RdSMin","RdSMax","RdSStd","RdSSkew","RdSKurt","PStatMean","PStatMin","PStatMax","PStatStd","PStatSkew","PStatKurt","QStatMean","QStatMin","QStatMax","QStatStd","QStatSkew","QStatKurt","RStatMean","RStatMin","RStatMax","RStatStd","RStatSkew","RStatKurt","SStatMean","SStatMin","SStatMax","SStatStd","SStatSkew","SStatKurt","TStatMean","TStatMin","TStatMax","TStatStd","TStatSkew","TStatKurt","HRV_DFA_alpha2","HRV_DFA_alpha2_ExpRange","HRV_DFA_alpha2_ExpMean","HRV_DFA_alpha2_DimRange","HRV_DFA_alpha2_DimMean"],"feature_types":["float","float","float","float","float","float","float","float","float","float","float","float","float","float","float","float","float","float","float","float","float","float","float","float","float","float","float","float","float","float","float","float","float","float","float","float","float","float","float","float","float","float","float","float","float","float","float","float","float","float","float","float","float","float","float","float","float","float","float","float","float","float","float","float","float","float","float","float","float","float","float","float","float","float","float","float","float","float","float","float","int","int","float","float","float","float","int","int","float","float","float","float","float","float","float","float","float","float","float","float","float","float","float","float","float","float","float","float","float","float","float","float","float","float","float","float","int","int","float","float","float","float","float","float","float","float","float","float","float","float","float","float","float","float","float","float","float","float","float","float","float","float","float","float","float","float","float","float","float","float","float","float","float","float","float","float","float","float","float","float","float","float","float","float","float","float","float","float","float","float","float","float","float","float","float","float","float","float","float","float","float","float","float","float","float","float","float","float","float","float","float","float"],"gradient_booster":{"gbtree":{"model":{"gbtree_model_param":{"num_parallel_tree":"1","num_trees":"13","size_leaf_vector":"0"},"tree_info":[0,0,0,0,0,0,0,0,0,0,0,0,0],"trees":[{"base_weights":[-5.3329825E-1,-9.120521E-1,4.7637415E-1,-9.587514E-1,8.2191783E-1,-2.647059E-1,7.855191E-1,-9.833139E-1,-4E-1,3.809524E-1,9.811321E-1,-6.857143E-1,2.9545453E-1,-1.12676054E-1,8.8066465E-1,-9.8695654E-1,-7.708333E-1,2.6666668E-1,-8.169014E-1,-8.9719623E-1,-3.478261E-1,5.7471263E-1,-2.3913044E-1,9.6428573E-1,-7.9545456E-1,9.447236E-1,2.8787878E-1,-7.407407E-1,-9.892173E-1,-9.6428573E-1,-4.7619048E-1,-3.809524E-1,8E-1,-9.8039216E-1,-3.809524E-1,-6.333333E-1,-9.8717946E-1,-9.6E-1,-0E0,7.4626863E-1,-0E0,-6.4E-1,2.2727273E-1,-9.583333E-1,-5.714286E-1,6.7241377E-1,9.722222E-1,-5.416667E-1,7.4418604E-1,5.6E-1,-6.666667E-1,3.478261E-1,9.3333334E-1,9.52381E-2,9.736842E-1,9.8640776E-1,6.5384614E-1,4.7619048E-1,9.5652175E-1],"categories":[],"categories_nodes":[],"categories_segments":[],"categories_sizes":[],"default_left":[1,1,1,1,1,1,0,1,1,0,0,1,1,1,1,1,1,0,1,1,1,1,1,0,1,1,1,0,0,0,0,0,0,0,0,0,0,0,1,1,0,0,0,0,0,1,1,0,1,0,0,0,0,0,0,0,0,0,0],"id":0,"left_children":[1,3,5,7,9,11,13,15,17,-1,-1,19,21,23,25,27,29,31,33,35,37,39,41,-1,43,45,47,-1,-1,-1,-1,-1,-1,-1,-1,-1,-1,-1,49,51,-1,-1,-1,-1,-1,53,55,-1,57,-1,-1,-1,-1,-1,-1,-1,-1,-1,-1],"loss_changes":[1.4532379E3,2.2452246E2,2.3778586E2,3.653882E1,4.751419E0,7.236726E1,6.2655426E1,1.2336426E0,3.2180283E1,0E0,0E0,1.2192955E1,1.9843338E1,5.2975216E1,2.4866333E1,6.7529297E-1,2.276785E0,1.5847619E1,4.686943E0,1.9153061E0,1.4692175E1,8.577803E0,8.745929E0,0E0,1.0578995E0,3.8167114E0,2.5385921E1,0E0,0E0,0E0,0E0,0E0,0E0,0E0,0E0,0E0,0E0,0E0,1.7173332E1,4.669174E0,0E0,0E0,0E0,0E0,0E0,9.992655E0,1.7938538E0,0E0,1.9914284E0,0E0,0E0,0E0,0E0,0E0,0E0,0E0,0E0,0E0,0E0],"parents":[2147483647,0,0,1,1,2,2,3,3,4,4,5,5,6,6,7,7,8,8,11,11,12,12,13,13,14,14,15,15,16,16,17,17,18,18,19,19,20,20,21,21,22,22,24,24,25,25,26,26,38,38,39,39,45,45,46,46,48,48],"right_children":[2,4,6,8,10,12,14,16,18,-1,-1,20,22,24,26,28,30,32,34,36,38,40,42,-1,44,46,48,-1,-1,-1,-1,-1,-1,-1,-1,-1,-1,-1,50,52,-1,-1,-1,-1,-1,54,56,-1,58,-1,-1,-1,-1,-1,-1,-1,-1,-1,-1],"split_conditions":[7.054002E1,1.3007036E2,8.81369E1,1.2375E2,4.875E1,1.16137E2,2.3591396E1,1.0291667E2,3.011543E-13,7.619048E-2,1.9622642E-1,7.273128E1,4.141493E1,5.384273E-2,9.011147E-1,-1.4887092E1,6.364834E1,3.1427197E1,4.7283653E1,2.9774765E1,4.891564E1,4.1809063E0,6.865199E1,1.9285715E-1,1.1548532E2,1.0375E2,-1.1873622E0,-1.4814815E-1,-1.9784346E-1,-1.9285715E-1,-9.52381E-2,-7.619048E-2,1.6000001E-1,-1.9607843E-1,-7.619048E-2,-1.2666667E-1,-1.974359E-1,-1.92E-1,3.975289E1,8.490028E1,-0E0,-1.28E-1,4.5454547E-2,-1.9166666E-1,-1.1428572E-1,6.52112E-1,2.00151E2,-1.0833334E-1,1.099595E2,1.12E-1,-1.3333334E-1,6.956522E-2,1.8666667E-1,1.904762E-2,1.9473684E-1,1.9728155E-1,1.3076924E-1,9.52381E-2,1.9130436E-1],"split_indices":[18,0,0,16,18,14,103,16,145,0,0,0,157,157,125,157,9,103,17,160,79,71,0,0,0,16,176,0,0,0,0,0,0,0,0,0,0,0,157,18,0,0,0,0,0,38,14,0,14,0,0,0,0,0,0,0,0,0,0],"split_type":[0,0,0,0,0,0,0,0,0,0,0,0,0,0,0,0,0,0,0,0,0,0,0,0,0,0,0,0,0,0,0,0,0,0,0,0,0,0,0,0,0,0,0,0,0,0,0,0,0,0,0,0,0,0,0,0,0,0,0],"sum_hessian":[3.798E3,2.762E3,1.036E3,2.69E3,7.2E1,3.05E2,7.31E2,2.576E3,1.14E2,2E1,5.2E1,1.74E2,1.31E2,7E1,6.61E2,2.529E3,4.7E1,4.4E1,7E1,1.06E2,6.8E1,8.6E1,4.5E1,2.7E1,4.3E1,5.96E2,6.5E1,2.6E1,2.503E3,2.7E1,2E1,2E1,2.4E1,5E1,2E1,2.9E1,7.7E1,2.4E1,4.4E1,6.6E1,2E1,2.4E1,2.1E1,2.3E1,2E1,5.7E1,5.39E2,2.3E1,4.2E1,2.4E1,2E1,2.2E1,4.4E1,2E1,3.7E1,5.14E2,2.5E1,2E1,2.2E1],"tree_param":{"num_deleted":"0","num_feature":"192","num_nodes":"59","size_leaf_vector":"0"}},{"base_weights":[-5.1225233E-1,-9.139194E-1,4.7877145E-1,9.0909094E-1,-9.664657E-1,-2.877193E-1,7.436209E-1,6.666667E-1,9.8245615E-1,-9.823113E-1,-5.945946E-1,2.9473683E-1,-5.7591623E-1,-7.457627E-1,8.5751635E-1,-9.853407E-1,-5.714286E-1,-2.2916667E-1,-8.59375E-1,6.956522E-1,-7.407407E-1,-8.429752E-1,-1.12676054E-1,-9.74359E-1,-2.857143E-1,9.030055E-1,-1.4705883E-1,-7E-1,-9.8837674E-1,-8.75E-1,4E-1,-9.7619045E-1,-6.086956E-1,9.3333334E-1,2.4E-1,-9.270833E-1,-5E-1,4.6875E-1,-5.75E-1,4.6774194E-1,9.418778E-1,-9.914321E-1,-8E-1,-1.904762E-1,7.8571427E-1,9.6920586E-1,6.181818E-1,-8.269231E-1,-9.945833E-1,-9.6E-1,-5.714286E-1,5.714286E-1,9.5454544E-1,7.692308E-1,9.8100173E-1,1.904762E-1,8.5714287E-1,-5.714286E-1,-9.6875E-1,7.878788E-1,9.908592E-1],"categories":[],"categories_nodes":[],"categories_segments":[],"categories_sizes":[],"default_left":[1,1,1,1,1,1,1,0,0,1,1,1,0,1,1,1,0,1,1,1,0,1,1,0,0,1,0,0,1,0,0,0,0,0,0,0,0,0,0,0,1,1,1,0,1,1,0,1,0,0,0,0,0,0,1,0,0,0,0,0,0],"id":1,"left_children":[1,3,5,7,9,11,13,-1,-1,15,17,19,21,23,25,27,-1,29,31,33,-1,35,37,-1,-1,39,-1,-1,41,-1,-1,-1,-1,-1,-1,-1,-1,-1,-1,43,45,47,49,-1,51,53,55,57,-1,-1,-1,-1,-1,-1,59,-1,-1,-1,-1,-1,-1],"loss_changes":[1.5274019E3,2.623921E2,2.249401E2,7.145119E-1,1.5054443E1,4.8010433E1,1.4024826E2,0E0,0E0,2.6037598E0,1.0543213E1,3.9953487E1,2.3534096E1,5.9263687E0,3.5091187E1,1.4946289E0,0E0,1.9854166E1,1.2799263E0,7.2486954E0,0E0,3.0269394E0,1.9354841E1,0E0,0E0,1.1944702E1,0E0,0E0,6.4282227E-1,0E0,0E0,0E0,0E0,0E0,0E0,0E0,0E0,0E0,0E0,1.3125961E1,5.336487E0,4.4799805E-1,1.0971451E0,0E0,9.740257E-1,7.0080566E-1,5.458008E0,1.3306999E0,0E0,0E0,0E0,0E0,0E0,0E0,3.2159424E-1,0E0,0E0,0E0,0E0,0E0,0E0],"parents":[2147483647,0,0,1,1,2,2,3,3,4,4,5,5,6,6,9,9,10,10,11,11,12,12,13,13,14,14,15,15,17,17,18,18,19,19,21,21,22,22,25,25,28,28,39,39,40,40,41,41,42,42,44,44,45,45,46,46,47,47,54,54],"right_children":[2,4,6,8,10,12,14,-1,-1,16,18,20,22,24,26,28,-1,30,32,34,-1,36,38,-1,-1,40,-1,-1,42,-1,-1,-1,-1,-1,-1,-1,-1,-1,-1,44,46,48,50,-1,52,54,56,58,-1,-1,-1,-1,-1,-1,60,-1,-1,-1,-1,-1,-1],"split_conditions":[5.02809E1,4.525E2,1.3012004E0,6.769897E-1,4.4315247E1,8.984375E1,1.17307246E-1,1.3333334E-1,1.9649123E-1,5.183568E0,7.016666E2,6.85E2,1.1304852E1,4.890137E1,1.205E2,4.75E2,-1.1428572E-1,8.213972E0,1.4352504E9,1.0393028E0,-1.4814815E-1,7.339861E-1,7.6E1,-1.948718E-1,-5.714286E-2,1.3916237E0,-2.9411767E-2,-1.4E-1,1.2410526E2,-1.75E-1,8.0000006E-2,-1.952381E-1,-1.2173913E-1,1.8666667E-1,4.8E-2,-1.8541667E-1,-1E-1,9.375E-2,-1.15E-1,3.088528E1,8.95E1,3.25E1,2.709262E-2,-3.809524E-2,9.715987E1,7.04235E1,8.872511E1,4.2411394E0,-1.9891666E-1,-1.92E-1,-1.1428572E-1,1.1428572E-1,1.9090909E-1,1.5384616E-1,4.2152536E-1,3.809524E-2,1.7142858E-1,-1.1428572E-1,-1.9375001E-1,1.5757577E-1,1.9817184E-1],"split_indices":[17,13,65,32,17,20,11,0,0,64,13,13,100,48,123,13,0,82,134,32,0,57,81,0,0,65,0,0,109,0,0,0,0,0,0,0,0,0,0,103,123,86,11,0,0,14,109,64,0,0,0,0,0,0,45,0,0,0,0,0,0],"split_type":[0,0,0,0,0,0,0,0,0,0,0,0,0,0,0,0,0,0,0,0,0,0,0,0,0,0,0,0,0,0,0,0,0,0,0,0,0,0,0,0,0,0,0,0,0,0,0,0,0,0,0,0,0,0,0,0,0,0,0,0,0],"sum_hessian":[3.835E3,2.729E3,1.106E3,7.6E1,2.653E3,2.84E2,8.22E2,2E1,5.6E1,2.543E3,1.1E2,9.4E1,1.9E2,5.8E1,7.64E2,2.523E3,2E1,4.7E1,6.3E1,6.8E1,2.6E1,1.2E2,7E1,3.8E1,2E1,7.31E2,3.3E1,2.9E1,2.494E3,2.3E1,2.4E1,4.1E1,2.2E1,4.4E1,2.4E1,9.5E1,2.5E1,3.1E1,3.9E1,6.1E1,6.7E2,2.45E3,4.4E1,2E1,4.1E1,6.16E2,5.4E1,5.1E1,2.399E3,2.4E1,2E1,2E1,2.1E1,3.8E1,5.78E2,2E1,3.4E1,2E1,3.1E1,3.2E1,5.46E2],"tree_param":{"num_deleted":"0","num_feature":"192","num_nodes":"61","size_leaf_vector":"0"}},{"base_weights":[-5.025445E-1,-9.322917E-1,6.755471E-1,-9.5669013E-1,7.804878E-1,-2.275449E-1,8.4519774E-1,-9.8716885E-1,-7.8117645E-1,5.714286E-1,9.5238096E-1,1.3E-1,-7.5E-1,9.0217394E-1,1.724138E-2,-9.8956597E-1,-6.666667E-1,-9.222973E-1,-4.5384616E-1,-4.25E-1,4.918033E-1,-9.7727275E-1,-3.2E-1,9.3669254E-1,4E-1,4.473684E-1,-7.619048E-1,-9.9438685E-1,-8.3950615E-1,-5.185185E-1,-9.592593E-1,-6.8686867E-1,2.8125E-1,7.692308E-1,-0E0,9.55102E-1,5.75E-1,-3.181818E-1,8.5294116E-1,-7.7272725E-1,-9.9607843E-1,-9.8275864E-1,-4.5833334E-1,-9.796748E-1,-7.2E-1,-8.7323946E-1,-2.0689656E-1,9.728183E-1,5.945946E-1,-7.619048E-1,-9.9557525E-1,-9.8039216E-1,-5.714286E-1,7.5E-1,9.806548E-1],"categories":[],"categories_nodes":[],"categories_segments":[],"categories_sizes":[],"default_left":[1,1,1,1,1,1,1,0,0,0,0,0,1,1,0,0,0,0,1,0,1,0,0,1,0,0,0,1,0,0,1,1,0,0,0,1,0,0,0,0,0,0,0,1,0,0,0,1,0,0,0,0,0,0,0],"id":2,"left_children":[1,3,5,7,9,11,13,15,17,-1,-1,19,21,23,25,27,-1,29,31,-1,33,-1,-1,35,37,-1,-1,39,41,-1,43,45,-1,-1,-1,47,-1,-1,-1,-1,-1,-1,-1,49,-1,51,-1,53,-1,-1,-1,-1,-1,-1,-1],"loss_changes":[1.9903162E3,1.2109961E2,1.6121619E2,1.4421143E1,9.2915344E-1,3.1293293E1,4.1733215E1,1.1962891E0,1.9213501E1,0E0,0E0,2.0289097E1,6.3327293E0,1.3978149E1,1.97785E1,8.9868164E-1,0E0,3.9202576E0,2.2461397E1,0E0,8.322825E0,0E0,0E0,4.604553E0,1.8162567E1,0E0,0E0,9.887695E-2,3.9724922E0,0E0,6.134796E-1,8.675156E0,0E0,0E0,0E0,4.115906E0,0E0,0E0,0E0,0E0,0E0,0E0,0E0,9.327698E-2,0E0,1.7359047E0,0E0,4.8498535E-1,0E0,0E0,0E0,0E0,0E0,0E0,0E0],"parents":[2147483647,0,0,1,1,2,2,3,3,4,4,5,5,6,6,7,7,8,8,11,11,12,12,13,13,14,14,15,15,17,17,18,18,20,20,23,23,24,24,27,27,28,28,30,30,31,31,35,35,43,43,45,45,47,47],"right_children":[2,4,6,8,10,12,14,16,18,-1,-1,20,22,24,26,28,-1,30,32,-1,34,-1,-1,36,38,-1,-1,40,42,-1,44,46,-1,-1,-1,48,-1,-1,-1,-1,-1,-1,-1,50,-1,52,-1,54,-1,-1,-1,-1,-1,-1,-1],"split_conditions":[1.03704974E-1,1.3037262E2,1.2074158E0,1.3430758E-1,5.242857E0,4.020452E-1,8.7890857E2,4.1455772E1,2.0233032E1,1.1428572E-1,1.904762E-1,1.830252E1,1.0400081E0,5.023629E-1,9.468317E-1,2.395E2,-1.3333334E-1,4.9452227E9,1.1212448E0,-8.5E-2,7.0010486E2,-1.9545455E-1,-6.4E-2,3.4613448E-1,1.54330635E1,8.947369E-2,-1.5238096E-1,3.25E1,5.325E1,-1.037037E-1,1.366429E0,4.429254E0,5.6250002E-2,1.5384616E-1,-0E0,3.25E1,1.15E-1,-6.363636E-2,1.7058824E-1,-1.5454546E-1,-1.992157E-1,-1.9655173E-1,-9.166667E-2,4.2628336E-1,-1.4400001E-1,1.01521224E-1,-4.1379314E-2,1.2681255E0,1.1891892E-1,-1.5238096E-1,-1.9911505E-1,-1.9607843E-1,-1.1428572E-1,1.5E-1,1.9613096E-1],"split_indices":[15,0,65,12,19,84,1,97,97,0,0,97,65,84,28,75,0,142,65,0,1,0,0,15,97,0,0,86,73,0,65,64,0,0,0,80,0,0,0,0,0,0,0,45,0,24,0,65,0,0,0,0,0,0,0],"split_type":[0,0,0,0,0,0,0,0,0,0,0,0,0,0,0,0,0,0,0,0,0,0,0,0,0,0,0,0,0,0,0,0,0,0,0,0,0,0,0,0,0,0,0,0,0,0,0,0,0,0,0,0,0,0,0],"sum_hessian":[3.929E3,2.879E3,1.05E3,2.839E3,4E1,1.66E2,8.84E2,2.415E3,4.24E2,2E1,2E1,9.9E1,6.7E1,8.27E2,5.7E1,2.395E3,2E1,2.95E2,1.29E2,3.9E1,6E1,4.3E1,2.4E1,7.73E2,5.4E1,3.7E1,2E1,2.315E3,8E1,2.6E1,2.69E2,9.8E1,3.1E1,3.8E1,2.2E1,7.34E2,3.9E1,2.1E1,3.3E1,2.1E1,2.294E3,5.7E1,2.3E1,2.45E2,2.4E1,7E1,2.8E1,6.98E2,3.6E1,2E1,2.25E2,5E1,2E1,2.7E1,6.71E2],"tree_param":{"num_deleted":"0","num_feature":"192","num_nodes":"55","size_leaf_vector":"0"}},{"base_weights":[-8.052423E-1,-9.701203E-1,-2.0141844E-1,-9.876596E-1,-7.850877E-1,-6.7241377E-1,4.3666667E-1,-7.1875E-1,-9.909444E-1,-8.9893615E-1,-2.4390244E-1,4.7619048E-1,-7.331606E-1,6.0580915E-1,-2.5E-1,-9.926055E-1,-7.619048E-1,-5.6666666E-1,-9.559748E-1,1.904762E-1,-6.666667E-1,-8.6170214E-1,-3.809524E-1,8.231707E-1,1.4102565E-1,1.6216215E-1,-8.75E-1,-9.942957E-1,-7.619048E-1,-6.956522E-1,-9.9270076E-1,-6.9148934E-1,-9.417989E-1,-7E-1,2.5E-1,9.4017094E-1,5.208333E-1,4.7272727E-1,-6.25E-1,-4.1666668E-2,-9.0140843E-1,-9.935484E-1,-6.857143E-1,-3.181818E-1,-8.5714287E-1,6.666667E-1,9.896907E-1,-0E0,8.9285713E-1,8.965517E-1,-0E0,-9.8039216E-1,-6.666667E-1,-6.666667E-1,-9.655172E-1],"categories":[],"categories_nodes":[],"categories_segments":[],"categories_sizes":[],"default_left":[1,1,1,1,0,0,1,0,1,1,1,0,1,1,1,0,0,0,1,0,0,1,0,0,1,0,0,0,0,0,0,1,0,1,0,1,0,1,0,0,1,0,0,0,1,0,0,0,0,0,0,0,0,0,0],"id":3,"left_children":[1,3,5,7,9,11,13,-1,15,17,19,-1,21,23,25,27,-1,-1,29,-1,-1,31,33,35,37,-1,-1,-1,-1,-1,-1,39,41,43,-1,45,47,49,-1,-1,51,-1,-1,-1,53,-1,-1,-1,-1,-1,-1,-1,-1,-1,-1],"loss_changes":[3.264519E2,7.5878906E0,2.121709E2,1.3635254E0,1.3828537E1,2.8677383E1,3.49948E1,0E0,1.2597656E-1,3.0213013E0,7.6562133E0,0E0,1.7147263E1,2.4231201E1,1.5597973E1,1.3891602E-1,0E0,0E0,8.2954407E-1,0E0,0E0,3.1934052E0,2.1311905E1,5.3115845E0,2.0114626E1,0E0,0E0,0E0,0E0,0E0,0E0,1.2785E1,1.8233795E0,3.9272728E0,0E0,9.2484283E-1,9.300595E0,1.1019436E1,0E0,0E0,6.6279984E-1,0E0,0E0,0E0,3.6781693E-1,0E0,0E0,0E0,0E0,0E0,0E0,0E0,0E0,0E0,0E0],"parents":[2147483647,0,0,1,1,2,2,3,3,4,4,5,5,6,6,8,8,9,9,10,10,12,12,13,13,14,14,15,15,18,18,21,21,22,22,23,23,24,24,31,31,32,32,33,33,35,35,36,36,37,37,40,40,44,44],"right_children":[2,4,6,8,10,12,14,-1,16,18,20,-1,22,24,26,28,-1,-1,30,-1,-1,32,34,36,38,-1,-1,-1,-1,-1,-1,40,42,44,-1,46,48,50,-1,-1,52,-1,-1,-1,54,-1,-1,-1,-1,-1,-1,-1,-1,-1,-1],"split_conditions":[1.3079947E-1,9.535992E-2,1.1847847E0,-1.4760593E1,2.3476896E1,-5.637109E-16,5.373961E1,-1.4375E-1,1.058262E2,-5.4539037E-1,1.8359375E2,9.52381E-2,1.0037374E0,-2.3509365E-1,-6.6783565E-1,7.811363E0,-1.5238096E-1,-1.1333334E-1,4.447262E1,3.809524E-2,-1.3333334E-1,-4.589751E-1,2.135062E1,1.7955817E-1,5.588886E-1,3.2432433E-2,-1.75E-1,-1.9885914E-1,-1.5238096E-1,-1.3913044E-1,-1.9854015E-1,1.1196553E1,2.400142E1,1.953125E2,5E-2,1.2715662E0,1.345E2,2.4968996E0,-1.25E-1,-8.333334E-3,7.4596775E-1,-1.9870968E-1,-1.3714287E-1,-6.363636E-2,2.8515625E2,1.3333334E-1,1.9793814E-1,-0E0,1.7857143E-1,1.7931035E-1,-0E0,-1.9607843E-1,-1.3333334E-1,-1.3333334E-1,-1.9310345E-1],"split_indices":[11,11,65,157,97,145,157,0,10,84,20,0,65,84,84,143,0,0,44,0,0,84,97,165,45,0,0,0,0,0,0,82,97,20,0,65,111,119,0,0,38,0,0,0,20,0,0,0,0,0,0,0,0,0,0],"split_type":[0,0,0,0,0,0,0,0,0,0,0,0,0,0,0,0,0,0,0,0,0,0,0,0,0,0,0,0,0,0,0,0,0,0,0,0,0,0,0,0,0,0,0,0,0,0,0,0,0,0,0,0,0,0,0],"sum_hessian":[3.28E3,2.576E3,7.04E2,2.349E3,2.27E2,4.05E2,2.99E2,3.1E1,2.318E3,1.87E2,4E1,2E1,3.85E2,2.4E2,5.9E1,2.298E3,2E1,2.9E1,1.58E2,2E1,2E1,2.81E2,1.04E2,1.63E2,7.7E1,3.6E1,2.3E1,2.278E3,2E1,2.2E1,1.36E2,9.3E1,1.88E2,6.9E1,3.5E1,1.16E2,4.7E1,5.4E1,2.3E1,2.3E1,7E1,1.54E2,3.4E1,2.1E1,4.8E1,2E1,9.6E1,2E1,2.7E1,2.8E1,2.6E1,5E1,2E1,2E1,2.8E1],"tree_param":{"num_deleted":"0","num_feature":"192","num_nodes":"55","size_leaf_vector":"0"}},{"base_weights":[-8.502994E-1,-9.595616E-1,-3.0113637E-1,-9.897914E-1,-7.8426397E-1,-7.0689654E-1,-1.0140845E-1,-7.083333E-1,-9.923767E-1,-3.4848484E-1,-8.693009E-1,-7.5E-2,-8.888889E-1,1.56E-1,-7.075472E-1,-6.956522E-1,-9.950181E-1,-7.75E-1,2.962963E-1,-9.04918E-1,-4E-1,-9.5652175E-1,-4.7619048E-1,4.2261904E-1,-3.8554215E-1,-8.783784E-1,-3.030303E-1,-9.388489E-1,-5.3571427E-1,-4.090909E-1,5.442177E-1,-6.792453E-1,1.2903225E-1,-9.814815E-1,-5.714286E-1,-9.6511626E-1,-5.714286E-1,7.256637E-1,-5.7142857E-2,-4.3333334E-1,-9.583333E-1,9.3421054E-1,2.8947368E-1],"categories":[],"categories_nodes":[],"categories_segments":[],"categories_sizes":[],"default_left":[1,1,0,1,1,1,1,0,0,1,1,0,1,0,0,0,0,0,0,0,0,0,0,0,1,0,0,0,0,0,0,1,0,0,0,0,0,1,0,0,0,0,0],"id":4,"left_children":[1,3,5,7,9,11,13,-1,15,17,19,-1,21,23,25,-1,-1,-1,-1,27,-1,-1,-1,29,31,33,-1,35,-1,-1,37,39,-1,-1,-1,-1,-1,41,-1,-1,-1,-1,-1],"loss_changes":[1.9009985E2,1.3245605E1,4.2718296E1,9.3652344E-1,1.4297623E1,1.994339E1,5.5499332E1,0E0,1.0554199E0,1.8380219E1,5.137314E0,0E0,3.3126297E0,3.62593E1,7.058861E0,0E0,0E0,0E0,0E0,3.3179169E0,0E0,0E0,0E0,1.7213282E1,1.2631609E1,1.7810707E0,0E0,2.1315308E0,0E0,0E0,1.6081295E1,3.2221699E0,0E0,0E0,0E0,0E0,0E0,1.0008736E1,0E0,0E0,0E0,0E0,0E0],"parents":[2147483647,0,0,1,1,2,2,3,3,4,4,5,5,6,6,8,8,9,9,10,10,12,12,13,13,14,14,19,19,23,23,24,24,25,25,27,27,30,30,31,31,37,37],"right_children":[2,4,6,8,10,12,14,-1,16,18,20,-1,22,24,26,-1,-1,-1,-1,28,-1,-1,-1,30,32,34,-1,36,-1,-1,38,40,-1,-1,-1,-1,-1,42,-1,-1,-1,-1,-1],"split_conditions":[4.5867485E1,9.538515E-2,7.153405E0,4.5775068E-1,-8.4205294E-1,-7.573129E-1,1.6840485E1,-1.4166667E-1,4.5E0,2.139286E0,1.3280255E14,-1.5000001E-2,1.8041666E2,1.9678953E0,1.6496498E1,-1.3913044E-1,-1.9900362E-1,-1.55E-1,5.9259262E-2,4.5831585E1,-8.0000006E-2,-1.9130436E-1,-9.52381E-2,5.6583973E1,1.3521683E0,-2.1132681E0,-6.0606062E-2,5.4141518E1,-1.0714286E-1,-8.1818186E-2,2.1770765E1,2.85E1,2.5806451E-2,-1.962963E-1,-1.1428572E-1,-1.9302325E-1,-1.1428572E-1,1.1180159E2,-1.1428571E-2,-8.6666666E-2,-1.9166666E-1,1.8684211E-1,5.7894737E-2],"split_indices":[17,11,100,65,84,84,118,0,128,71,136,0,16,101,100,0,0,0,0,144,0,0,0,109,65,29,0,103,0,0,106,80,0,0,0,0,0,91,0,0,0,0,0],"split_type":[0,0,0,0,0,0,0,0,0,0,0,0,0,0,0,0,0,0,0,0,0,0,0,0,0,0,0,0,0,0,0,0,0,0,0,0,0,0,0,0,0,0,0],"sum_hessian":[3.172E3,2.645E3,5.27E2,2.252E3,3.93E2,1.73E2,3.54E2,2.3E1,2.229E3,6.5E1,3.28E2,3.9E1,1.34E2,2.49E2,1.05E2,2.2E1,2.207E3,3.9E1,2.6E1,3.04E2,2.4E1,1.14E2,2E1,1.67E2,8.2E1,7.3E1,3.2E1,2.77E2,2.7E1,2.1E1,1.46E2,5.2E1,3E1,5.3E1,2E1,2.57E2,2E1,1.12E2,3.4E1,2.9E1,2.3E1,7.5E1,3.7E1],"tree_param":{"num_deleted":"0","num_feature":"192","num_nodes":"43","size_leaf_vector":"0"}},{"base_weights":[-8.45832E-1,-9.7722566E-1,-3.8672438E-1,-4.090909E-1,-9.8203844E-1,-6.26E-1,2.3195876E-1,-9.8523206E-1,-6.4E-1,7.619048E-1,-6.8541664E-1,-3.8E-1,4.413793E-1,-9.964449E-1,-9.278607E-1,-7.95082E-1,-3.3043477E-1,4.5454547E-2,-6.896552E-1,1.923077E-2,6.7021275E-1,-5.9090906E-1,-9.448819E-1,-1.6E-1,-8.391813E-1,-8.5365854E-2,-9.117647E-1,-4.3333334E-1,6.086956E-1,9.52381E-2,8.243243E-1,-9.7712415E-1,-8.0263156E-1,-8.956229E-1,-4.5652175E-1,2.5862068E-1,-8.8E-1,9.444444E-1,4.7619048E-1,-9.9630994E-1,-8.055556E-1,-9.7619045E-1,-5.714286E-1,-9.309091E-1,-4.347826E-1,-9.5454544E-1,-0E0,-1.21212125E-1,7.307692E-1,-9.6202534E-1,-7.1794873E-1],"categories":[],"categories_nodes":[],"categories_segments":[],"categories_sizes":[],"default_left":[1,0,0,0,1,0,1,1,0,0,0,0,1,0,1,0,1,0,0,1,1,0,0,0,0,1,0,0,0,0,1,0,1,1,1,1,0,0,0,0,0,0,0,0,0,0,0,0,0,0,0],"id":5,"left_children":[1,3,5,-1,7,9,11,13,-1,-1,15,17,19,-1,21,23,25,-1,-1,27,29,-1,31,-1,33,35,-1,-1,-1,-1,37,39,41,43,45,47,-1,-1,-1,-1,-1,-1,-1,49,-1,-1,-1,-1,-1,-1,-1],"loss_changes":[1.8704834E2,6.20166E0,1.0273401E2,0E0,1.984375E0,4.1754562E1,2.5030132E1,6.0009766E-1,0E0,0E0,1.8423279E1,6.6185584E0,1.3994358E1,0E0,1.7472534E0,1.011618E1,1.6305744E1,0E0,0E0,1.4135841E1,8.2508545E0,0E0,9.631958E-1,0E0,6.9776154E0,2.264175E1,0E0,0E0,0E0,0E0,2.6447906E0,2.046814E-1,2.4918594E0,4.4248657E0,1.0458497E1,1.0490152E1,0E0,0E0,0E0,0E0,0E0,0E0,0E0,1.131607E0,0E0,0E0,0E0,0E0,0E0,0E0,0E0],"parents":[2147483647,0,0,1,1,2,2,4,4,5,5,6,6,7,7,10,10,11,11,12,12,14,14,15,15,16,16,19,19,20,20,22,22,24,24,25,25,30,30,31,31,32,32,33,33,34,34,35,35,43,43],"right_children":[2,4,6,-1,8,10,12,14,-1,-1,16,18,20,-1,22,24,26,-1,-1,28,30,-1,32,-1,34,36,-1,-1,-1,-1,38,40,42,44,46,48,-1,-1,-1,-1,-1,-1,-1,50,-1,-1,-1,-1,-1,-1,-1],"split_conditions":[1.13718525E-1,-8.063816E-14,1.2642908E0,-8.1818186E-2,2.2717596E1,-3.0568518E-14,5.617378E-1,7.148145E-2,-1.28E-1,1.5238096E-1,2.2777473E1,1.0746136E0,8.225E0,-1.9928898E-1,7.3097944E-2,-5.3139406E-1,5.469067E1,9.09091E-3,-1.3793103E-1,-8.188108E9,1.5528634E-1,-1.1818182E-1,1.293659E1,-3.2E-2,2.4800257E13,8.5739946E-1,-1.8235295E-1,-8.6666666E-2,1.2173913E-1,1.904762E-2,5.411209E0,1.25E2,9.0720214E-2,5.2262416E0,9.110605E-2,1.6796875E2,-1.76E-1,1.8888889E-1,9.52381E-2,-1.99262E-1,-1.6111112E-1,-1.952381E-1,-1.1428572E-1,5.623392E-2,-8.695652E-2,-1.9090909E-1,-0E0,-2.4242425E-2,1.4615385E-1,-1.9240507E-1,-1.4358975E-1],"split_indices":[11,145,63,0,100,145,37,11,0,0,97,101,19,0,11,186,157,0,0,134,11,0,100,0,142,83,0,0,0,0,64,129,11,64,157,20,0,0,0,0,0,0,0,25,0,0,0,0,0,0,0],"split_type":[0,0,0,0,0,0,0,0,0,0,0,0,0,0,0,0,0,0,0,0,0,0,0,0,0,0,0,0,0,0,0,0,0,0,0,0,0,0,0,0,0,0,0,0,0,0,0,0,0,0,0],"sum_hessian":[3.106E3,2.414E3,6.92E2,2.1E1,2.393E3,4.99E2,1.93E2,2.369E3,2.4E1,2E1,4.79E2,4.9E1,1.44E2,1.968E3,4.01E2,3.65E2,1.14E2,2.1E1,2.8E1,5.1E1,9.3E1,2.1E1,3.8E2,2.4E1,3.41E2,8.1E1,3.3E1,2.9E1,2.2E1,2E1,7.3E1,3.05E2,7.5E1,2.96E2,4.5E1,5.7E1,2.4E1,5.3E1,2E1,2.7E2,3.5E1,4.1E1,3.4E1,2.74E2,2.2E1,2.1E1,2.4E1,3.2E1,2.5E1,2.36E2,3.8E1],"tree_param":{"num_deleted":"0","num_feature":"192","num_nodes":"51","size_leaf_vector":"0"}},{"base_weights":[-8.741551E-1,-9.7901237E-1,-4.9705014E-1,-5E-1,-9.837838E-1,-2.0977011E-1,-7.975831E-1,-8.152174E-1,-9.900605E-1,2.1428572E-1,-5.435898E-1,-9.325397E-1,-3.625E-1,-9.305556E-1,-3.809524E-1,-9.158416E-1,-9.966872E-1,-4.2553192E-1,4.9074075E-1,-7.692308E-1,-2.0253165E-1,-9.669811E-1,-7.3170733E-1,5.4054055E-2,-7.0454544E-1,-6.052632E-1,-9.818182E-1,4.5454547E-2,-8.076923E-1,8.301887E-1,1.6071428E-1,-8.659794E-1,-2.857143E-1,-4.7916666E-1,2.1875E-1,-8.2051283E-1,-9.9425286E-1,-4.7619048E-1,-9.5238096E-1,-4.5833334E-1,-9.5238096E-1,9.69697E-1,5.714286E-1,5.925926E-1,-2.3333333E-1,-9.350649E-1,-5.714286E-1,-8.5714287E-1,-1.7857143E-1],"categories":[],"categories_nodes":[],"categories_segments":[],"categories_sizes":[],"default_left":[1,0,1,0,1,1,1,1,1,1,1,0,1,0,0,1,0,1,1,0,0,1,1,0,0,0,0,0,0,0,0,1,0,1,0,0,0,0,0,0,0,0,0,0,0,0,0,0,0],"id":6,"left_children":[1,3,5,-1,7,9,11,13,15,17,19,21,23,-1,-1,25,-1,27,29,31,33,35,37,-1,39,-1,-1,-1,-1,41,43,45,-1,47,-1,-1,-1,-1,-1,-1,-1,-1,-1,-1,-1,-1,-1,-1,-1],"loss_changes":[1.2237085E2,5.0620117E0,5.8369247E1,0E0,1.7375488E0,4.9378723E1,1.9097382E1,4.25354E0,2.253418E-1,2.744847E1,1.4850761E1,1.0355225E0,1.1436519E1,0E0,0E0,3.5449066E0,0E0,8.496354E0,1.1965471E1,5.225792E0,9.311577E0,3.1036377E-2,1.858305E0,0E0,2.248375E0,0E0,0E0,0E0,0E0,1.3591461E0,9.668386E0,1.4395447E0,0E0,5.3005953E0,0E0,0E0,0E0,0E0,0E0,0E0,0E0,0E0,0E0,0E0,0E0,0E0,0E0,0E0,0E0],"parents":[2147483647,0,0,1,1,2,2,4,4,5,5,6,6,7,7,8,8,9,9,10,10,11,11,12,12,15,15,17,17,18,18,19,19,20,20,21,21,22,22,24,24,29,29,30,30,31,31,33,33],"right_children":[2,4,6,-1,8,10,12,14,16,18,20,22,24,-1,-1,26,-1,28,30,32,34,36,38,-1,40,-1,-1,-1,-1,42,44,46,-1,48,-1,-1,-1,-1,-1,-1,-1,-1,-1,-1,-1,-1,-1,-1,-1],"split_conditions":[1.0905704E-1,-1.7370379E-1,2.1963137E-1,-1E-1,-3.1182504E0,1.4123554E1,1.4625E2,6.5181065E-1,-9.5255435E-1,9.3545634E-1,1.1839923E0,2.2303875E1,1.6895468E2,-1.8611112E-1,-7.619048E-2,2.65E1,-1.9933744E-1,-3.796482E-1,-8.383821E-1,2.6224316E1,1.75E1,2.535045E-1,1.1790614E2,1.0810811E-2,1.3799958E0,-1.2105264E-1,-1.9636364E-1,9.09091E-3,-1.6153847E-1,7.8806555E-1,2.10439E-1,4.769455E0,-5.714286E-2,1.4792972E2,4.375E-2,-1.6410257E-1,-1.9885057E-1,-9.52381E-2,-1.904762E-1,-9.166667E-2,-1.904762E-1,1.939394E-1,1.1428572E-1,1.18518524E-1,-4.6666667E-2,-1.8701299E-1,-1.1428572E-1,-1.7142858E-1,-3.5714287E-2],"split_indices":[11,181,84,0,157,124,16,32,84,65,65,97,2,0,0,80,0,173,173,97,104,62,2,0,77,0,0,0,0,114,185,64,0,2,0,0,0,0,0,0,0,0,0,0,0,0,0,0,0],"split_type":[0,0,0,0,0,0,0,0,0,0,0,0,0,0,0,0,0,0,0,0,0,0,0,0,0,0,0,0,0,0,0,0,0,0,0,0,0,0,0,0,0,0,0,0,0,0,0,0,0],"sum_hessian":[3.106E3,2.429E3,6.77E2,2.5E1,2.404E3,3.47E2,3.3E2,9.1E1,2.313E3,1.53E2,1.94E2,2.51E2,7.9E1,7.1E1,2E1,2.01E2,2.112E3,4.6E1,1.07E2,1.16E2,7.8E1,2.11E2,4E1,3.6E1,4.3E1,3.7E1,1.64E2,2.1E1,2.5E1,5.2E1,5.5E1,9.6E1,2E1,4.7E1,3.1E1,3.8E1,1.73E2,2E1,2E1,2.3E1,2E1,3.2E1,2E1,2.6E1,2.9E1,7.6E1,2E1,2E1,2.7E1],"tree_param":{"num_deleted":"0","num_feature":"192","num_nodes":"49","size_leaf_vector":"0"}},{"base_weights":[-8.872727E-1,-9.56213E-1,-5.2953154E-1,-9.8544604E-1,-8.004926E-1,-6.232877E-1,2.4074075E-1,-9.93487E-1,-8.5925925E-1,-8.8081396E-1,-3.4920636E-1,-4.2152467E-1,-8.287037E-1,-1.4814815E-1,6.0714287E-1,-9.9643403E-1,-7.941176E-1,-2.857143E-1,-9.5652175E-1,-9.166667E-1,-6.2222224E-1,2.962963E-1,-8.108108E-1,1.521739E-1,-5.674157E-1,-9.266667E-1,-5.970149E-1,-5.9090906E-1,-9.390681E-1,-3.478261E-1,-8.695652E-1,6.818182E-1,-3.2E-1,-8.2653064E-1,-2.4691358E-1,-6.666667E-1,-9.6153843E-1,-2.8125E-1,-8.611111E-1,-9.644269E-1,-6.666667E-1,-4.8E-1,-9.324324E-1,1.724138E-2,-8.75E-1,-9.8712444E-1,-6.666667E-1,2.8947368E-1,-4.7619048E-1],"categories":[],"categories_nodes":[],"categories_segments":[],"categories_sizes":[],"default_left":[1,1,1,1,0,1,1,0,0,0,1,1,0,0,0,0,0,0,0,0,0,0,0,1,0,0,0,0,0,0,0,0,0,1,1,0,0,0,0,1,0,0,0,0,0,0,0,0,0],"id":7,"left_children":[1,3,5,7,9,11,13,15,17,19,21,23,25,-1,-1,-1,-1,-1,-1,27,29,-1,-1,31,33,35,37,-1,39,-1,-1,-1,-1,41,43,-1,-1,-1,-1,45,-1,-1,-1,47,-1,-1,-1,-1,-1],"loss_changes":[7.409863E1,1.0750977E1,3.5608948E1,1.3076172E0,1.4409058E1,1.7803757E1,7.784391E0,3.8134766E-1,7.2576065E0,2.618927E0,1.9012156E1,1.8750889E1,4.349304E0,0E0,0E0,0E0,0E0,0E0,0E0,1.6343384E0,2.75169E0,0E0,0E0,1.1722056E1,1.4578262E1,7.189636E-1,5.3450985E0,0E0,1.284317E0,0E0,0E0,0E0,0E0,3.148857E0,1.3453969E1,0E0,0E0,0E0,0E0,1.0517883E0,0E0,0E0,0E0,7.928874E0,0E0,0E0,0E0,0E0,0E0],"parents":[2147483647,0,0,1,1,2,2,3,3,4,4,5,5,6,6,7,7,8,8,9,9,10,10,11,11,12,12,19,19,20,20,23,23,24,24,25,25,26,26,28,28,33,33,34,34,39,39,43,43],"right_children":[2,4,6,8,10,12,14,16,18,20,22,24,26,-1,-1,-1,-1,-1,-1,28,30,-1,-1,32,34,36,38,-1,40,-1,-1,-1,-1,42,44,-1,-1,-1,-1,46,-1,-1,-1,48,-1,-1,-1,-1,-1],"split_conditions":[1.2123552E2,6.669381E1,1.5359607E0,1.215E2,1.225E2,8.831241E-1,-2.7354234E-1,8.95E1,1.495E2,2.117381E1,-2.8680624E-14,-6.4552823E-13,8.7043846E-1,-2.9629631E-2,1.2142857E-1,-1.992868E-1,-1.5882353E-1,-5.714286E-2,-1.9130436E-1,-1.0635622E0,6.25E1,5.9259262E-2,-1.6216217E-1,9.1106963E-1,1.7840279E1,6.853253E-1,1.1029792E0,-1.1818182E-1,2.5358477E0,-6.956522E-2,-1.7391305E-1,1.3636364E-1,-6.4E-2,9.6884716E-1,2.4801181E2,-1.3333334E-1,-1.923077E-1,-5.6250002E-2,-1.7222223E-1,5.518413E0,-1.3333334E-1,-9.6E-2,-1.8648648E-1,1.1584529E0,-1.75E-1,-1.9742489E-1,-1.3333334E-1,5.7894737E-2,-9.52381E-2],"split_indices":[10,9,63,129,75,149,170,99,129,97,153,153,63,0,0,0,0,0,0,96,75,0,0,96,97,101,63,0,63,0,0,0,0,32,2,0,0,0,0,137,0,0,0,150,0,0,0,0,0],"split_type":[0,0,0,0,0,0,0,0,0,0,0,0,0,0,0,0,0,0,0,0,0,0,0,0,0,0,0,0,0,0,0,0,0,0,0,0,0,0,0,0,0,0,0,0,0,0,0,0,0],"sum_hessian":[3.024E3,2.534E3,4.9E2,2.129E3,4.05E2,4.37E2,5.3E1,1.995E3,1.34E2,3.43E2,6.2E1,2.22E2,2.15E2,2.6E1,2.7E1,1.962E3,3.3E1,2E1,1.14E2,2.99E2,4.4E1,2.6E1,3.6E1,4.5E1,1.77E2,1.49E2,6.6E1,2.1E1,2.78E2,2.2E1,2.2E1,2.1E1,2.4E1,9.7E1,8E1,2E1,1.29E2,3.1E1,3.5E1,2.52E2,2.6E1,2.4E1,7.3E1,5.7E1,2.3E1,2.32E2,2E1,3.7E1,2E1],"tree_param":{"num_deleted":"0","num_feature":"192","num_nodes":"49","size_leaf_vector":"0"}},{"base_weights":[-5.4545456E-1,-7.733645E-1,-3.3405173E-1,-7.5E-2,-8.431877E-1,2.8985506E-1,-4.4191918E-1,-2.857143E-1,-8.7262875E-1,6.976744E-1,-3.7037036E-1,7.7272725E-1,-5.12E-1,-7.906977E-1,-9.806452E-1,4.7619048E-1,8.695652E-1,-6.081505E-1,3.508772E-2,-8.402062E-1,-3.181818E-1,-8.346457E-1,-4.5595855E-1,-2.857143E-1,5.217391E-1,-5.833333E-1,-8.930818E-1,-5.8536583E-1,-9.425287E-1,-8E-1,-2.3529412E-1,-9.590164E-1,-6.5789473E-1,-8.5714287E-1,-2.857143E-1,-5.185185E-1,-9.3877554E-1,-6.041667E-1,1.3888889E-2,-2.962963E-1,-9.5454544E-1,2.7450982E-1,-5.9090906E-1],"categories":[],"categories_nodes":[],"categories_segments":[],"categories_sizes":[],"default_left":[1,0,1,0,0,1,1,0,0,1,0,0,0,1,0,0,0,1,1,1,0,1,0,0,0,0,1,1,0,1,0,0,0,0,0,0,0,1,0,0,0,0,0],"id":8,"left_children":[1,3,5,-1,7,9,11,-1,13,15,-1,-1,17,19,-1,-1,-1,21,23,25,-1,27,29,-1,-1,-1,31,33,-1,35,37,-1,-1,-1,-1,-1,-1,39,41,-1,-1,-1,-1],"loss_changes":[4.2670746E1,2.0806915E1,3.1354946E1,0E0,6.135193E0,1.8836834E1,3.4104507E1,0E0,2.4902344E0,1.2229767E0,0E0,0E0,1.9747368E1,4.7622833E0,0E0,0E0,0E0,1.0615608E1,9.047837E0,2.1139984E0,0E0,2.8636932E0,1.4463882E1,0E0,0E0,0E0,1.834671E0,3.0940762E0,0E0,2.4429321E0,1.0946487E1,0E0,0E0,0E0,0E0,0E0,0E0,4.894991E0,1.1511066E1,0E0,0E0,0E0,0E0],"parents":[2147483647,0,0,1,1,2,2,4,4,5,5,6,6,8,8,9,9,12,12,13,13,17,17,18,18,19,19,21,21,22,22,26,26,27,27,29,29,30,30,37,37,38,38],"right_children":[2,4,6,-1,8,10,12,-1,14,16,-1,-1,18,20,-1,-1,-1,22,24,26,-1,28,30,-1,-1,-1,32,34,-1,36,38,-1,-1,-1,-1,-1,-1,40,42,-1,-1,-1,-1],"split_conditions":[4.57286E1,-2.8223002E-3,4.687179E-2,-1.5000001E-2,-7.1900225E-1,1.0883403E0,-1.1338176E-2,-5.714286E-2,2.1118417E0,7.973828E1,-7.4074075E-2,1.5454546E-1,2.5435215E1,4.861146E0,-1.9612904E-1,9.52381E-2,1.7391305E-1,1.6981167E-1,8.561076E1,-3.7237105E0,-6.363636E-2,-3.8842115E-13,9.010603E-1,-5.714286E-2,1.04347825E-1,-1.1666667E-1,3.6038962E-1,1.307269E-1,-1.8850575E-1,5.290077E-1,1.45E1,-1.9180328E-1,-1.3157895E-1,-1.7142858E-1,-5.714286E-2,-1.037037E-1,-1.8775511E-1,-1.7645408E10,9.510748E1,-5.9259262E-2,-1.9090909E-1,5.4901965E-2,-1.1818182E-1],"split_indices":[17,181,157,0,186,32,181,0,101,18,0,0,97,64,0,0,0,11,18,137,0,153,189,0,0,0,40,12,0,45,104,0,0,0,0,0,0,134,181,0,0,0,0],"split_type":[0,0,0,0,0,0,0,0,0,0,0,0,0,0,0,0,0,0,0,0,0,0,0,0,0,0,0,0,0,0,0,0,0,0,0,0,0,0,0,0,0,0,0],"sum_hessian":[8.9E2,4.27E2,4.63E2,3.9E1,3.88E2,6.8E1,3.95E2,2E1,3.68E2,4.2E1,2.6E1,2.1E1,3.74E2,2.14E2,1.54E2,2E1,2.2E1,3.18E2,5.6E1,1.93E2,2.1E1,1.26E2,1.92E2,3.4E1,2.2E1,3.5E1,1.58E2,4E1,8.6E1,7.4E1,1.18E2,1.21E2,3.7E1,2E1,2E1,2.6E1,4.8E1,4.7E1,7.1E1,2.6E1,2.1E1,5E1,2.1E1],"tree_param":{"num_deleted":"0","num_feature":"192","num_nodes":"43","size_leaf_vector":"0"}},{"base_weights":[-3.204698E-1,9.0909094E-1,-3.9184397E-1,-4.4423792E-1,6.666667E-1,-6.9483566E-1,-2.791411E-1,-8.968254E-1,-3.9772728E-1,1.8292682E-2,-5.766871E-1,-6.764706E-1,-9.677419E-1,1.3157895E-1,-7.8431374E-1,-5E-1,2.990654E-1,-4.245283E-1,-8.448276E-1,-4.7619048E-1,-9.677419E-1,-9.0625E-1,-0E0,5.131579E-1,-2.1875E-1,5.4054055E-2,-6.7142856E-1,-9.736842E-1,-5.714286E-1,8.888889E-1,3E-1,-3.2258064E-1,-9.25E-1,-4.5454547E-2,5.5172414E-1],"categories":[],"categories_nodes":[],"categories_segments":[],"categories_sizes":[],"default_left":[1,0,1,1,0,0,1,1,0,1,1,0,0,0,1,1,1,0,1,0,0,0,0,1,0,0,0,0,0,0,1,0,0,0,0],"id":9,"left_children":[1,-1,3,5,-1,7,9,11,13,15,17,-1,-1,-1,19,21,23,25,27,-1,-1,-1,-1,29,-1,-1,31,-1,-1,-1,33,-1,-1,-1,-1],"loss_changes":[5.2660515E1,0E0,3.157534E1,2.206466E1,0E0,1.2426048E1,2.8861626E1,1.3143234E0,1.810999E1,2.4015215E1,6.2917404E0,0E0,0E0,0E0,2.4216137E0,1.178125E1,1.1974316E1,1.2561478E1,1.486908E0,0E0,0E0,0E0,0E0,5.820175E0,0E0,0E0,5.8936634E0,0E0,0E0,0E0,4.373041E0,0E0,0E0,0E0,0E0],"parents":[2147483647,0,0,2,2,3,3,5,5,6,6,7,7,8,8,9,9,10,10,14,14,15,15,16,16,17,17,18,18,23,23,26,26,30,30],"right_children":[2,-1,4,6,-1,8,10,12,14,16,18,-1,-1,-1,20,22,24,26,28,-1,-1,-1,-1,30,-1,-1,32,-1,-1,-1,34,-1,-1,-1,-1],"split_conditions":[4.597802E2,1.8181819E-1,1.455E1,8.458333E1,1.3333334E-1,6.1670694E-13,7.466907E2,-1.6983278E0,1.2402226E-10,1.0975673E0,5.736449E-1,-1.3529412E-1,-1.9354838E-1,2.6315792E-2,8.854498E0,1.2202564E1,5.389433E-1,1.7254026E1,6.4611006E-1,-9.52381E-2,-1.9354838E-1,-1.8125E-1,-0E0,3.015697E-1,-4.375E-2,1.0810811E-2,9.1892646E-11,-1.9473684E-1,-1.1428572E-1,1.7777778E-1,7.5484436E1,-6.451613E-2,-1.85E-1,-9.09091E-3,1.1034483E-1],"split_indices":[1,0,19,16,0,145,1,173,145,72,83,0,0,0,118,115,179,130,37,0,0,0,0,61,0,0,145,0,0,0,51,0,0,0,0],"split_type":[0,0,0,0,0,0,0,0,0,0,0,0,0,0,0,0,0,0,0,0,0,0,0,0,0,0,0,0,0,0,0,0,0,0,0],"sum_hessian":[5.95E2,3.2E1,5.63E2,5.37E2,2.6E1,2.12E2,3.25E2,1.25E2,8.7E1,1.63E2,1.62E2,3.3E1,9.2E1,3.7E1,5E1,5.7E1,1.06E2,1.05E2,5.7E1,2E1,3E1,3.1E1,2.6E1,7.5E1,3.1E1,3.6E1,6.9E1,3.7E1,2E1,2.6E1,4.9E1,3E1,3.9E1,2.1E1,2.8E1],"tree_param":{"num_deleted":"0","num_feature":"192","num_nodes":"35","size_leaf_vector":"0"}},{"base_weights":[-2.8923768E-1,6.666667E-1,-3.647343E-1,-8.636364E-1,-2.6934096E-1,-5.714286E-1,-9.782609E-1,-6.5789474E-3,-4.6969697E-1,-8.8E-1,1.640625E-1,-8.194444E-1,-2.6771653E-1,-5.1282054E-1,4.5555556E-1,-4.090909E-1,-9.8039216E-1,-6.25E-1,1.3888889E-2,7.291667E-1,1.3953489E-1,-9E-1,-2.962963E-1,2.7450982E-1,-5.9090906E-1,9.6428573E-1,3.809524E-1,6.666667E-1,-3.478261E-1,-6.451613E-2,7.619048E-1],"categories":[],"categories_nodes":[],"categories_segments":[],"categories_sizes":[],"default_left":[1,0,0,1,1,0,0,1,1,0,0,0,1,0,1,0,0,1,0,0,0,0,0,1,0,0,0,0,0,0,0],"id":10,"left_children":[1,-1,3,5,7,-1,-1,9,11,-1,13,15,17,-1,19,-1,-1,21,23,25,27,-1,-1,29,-1,-1,-1,-1,-1,-1,-1],"loss_changes":[3.2429886E1,0E0,1.9470448E1,1.6516113E0,1.8370348E1,0E0,0E0,2.2798735E1,1.3767765E1,0E0,2.5488876E1,4.354206E0,1.2786527E1,0E0,7.6802654E0,0E0,0E0,4.79537E0,1.1511066E1,3.5625E0,1.1278732E1,0E0,0E0,8.476372E0,0E0,0E0,0E0,0E0,0E0,0E0,0E0],"parents":[2147483647,0,0,2,2,3,3,4,4,7,7,8,8,10,10,11,11,12,12,14,14,17,17,18,18,19,19,20,20,23,23],"right_children":[2,-1,4,6,8,-1,-1,10,12,-1,14,16,18,-1,20,-1,-1,22,24,26,28,-1,-1,30,-1,-1,-1,-1,-1,-1,-1],"split_conditions":[4.8100104E2,1.3333334E-1,-4.1646194E-1,5.656924E10,7.166111E2,-1.1428572E-1,-1.9565217E-1,6.2513995E0,5.3038857E1,-1.76E-1,2.891129E1,9.5E0,6.5779454E-1,-1.0256411E-1,-5.72136E-13,-8.1818186E-2,-1.9607843E-1,1.099595E2,1.1692105E2,7.35E1,7.886996E-1,-1.7999999E-1,-5.9259262E-2,1.9921875E2,-1.1818182E-1,1.9285715E-1,7.619048E-2,1.3333334E-1,-6.956522E-2,-1.2903226E-2,1.5238096E-1],"split_indices":[1,0,77,136,1,0,0,82,79,0,127,74,180,0,151,0,0,14,184,123,77,0,0,20,0,0,0,0,0,0,0],"split_type":[0,0,0,0,0,0,0,0,0,0,0,0,0,0,0,0,0,0,0,0,0,0,0,0,0,0,0,0,0,0,0],"sum_hessian":[4.45E2,3.2E1,4.13E2,6.5E1,3.48E2,2E1,4.5E1,1.51E2,1.97E2,2.4E1,1.27E2,7.1E1,1.26E2,3.8E1,8.9E1,2.1E1,5E1,5.5E1,7.1E1,4.7E1,4.2E1,2.9E1,2.6E1,5E1,2.1E1,2.7E1,2E1,2E1,2.2E1,3E1,2E1],"tree_param":{"num_deleted":"0","num_feature":"192","num_nodes":"31","size_leaf_vector":"0"}},{"base_weights":[-2.200489E-1,-3.3832335E-1,3.026316E-1,-5.45045E-1,7.079646E-2,7.916667E-1,7.54717E-2,-5.7142857E-2,-6.3297874E-1,-3.8636363E-1,3.5714287E-1,-3.181818E-1,3.4375E-1,-1.5625E-1,-7.2611463E-1,-8.5714287E-1,4.1666668E-2,-3.181818E-1,6.530612E-1,-3E-1,-8.203125E-1,9.655172E-1,1.904762E-1,-9.6590906E-1,-4.878049E-1,-1.904762E-1,-7.619048E-1],"categories":[],"categories_nodes":[],"categories_segments":[],"categories_sizes":[],"default_left":[0,1,1,0,1,0,1,0,1,0,1,0,0,0,0,0,0,0,0,0,0,0,0,0,1,0,0],"id":11,"left_children":[1,3,5,7,9,-1,11,-1,13,15,17,-1,-1,-1,19,-1,-1,-1,21,-1,23,-1,-1,-1,25,-1,-1],"loss_changes":[2.5386662E1,2.8286278E1,8.383027E0,9.488312E0,1.4930382E1,0E0,5.7066364E0,0E0,8.233849E0,8.902057E0,1.4196659E1,0E0,0E0,0E0,6.0557404E0,0E0,0E0,0E0,6.89843E0,0E0,5.7255554E0,0E0,0E0,0E0,3.1962833E0,0E0,0E0],"parents":[2147483647,0,0,1,1,2,2,3,3,4,4,6,6,8,8,9,9,10,10,14,14,18,18,20,20,24,24],"right_children":[2,4,6,8,10,-1,12,-1,14,16,18,-1,-1,-1,20,-1,-1,-1,22,-1,24,-1,-1,-1,26,-1,-1],"split_conditions":[2.25E1,1.3985244E0,4.35E1,-6.3067925E-1,-2.2148377E-1,1.5833335E-1,9.763682E-1,-1.1428571E-2,4.393614E-1,9.501938E0,4.141492E0,-6.363636E-2,6.875E-2,-3.125E-2,1.0253445E10,-1.7142858E-1,8.333334E-3,-6.363636E-2,3.65963E1,-6.0000002E-2,3.6174068E0,1.9310345E-1,3.809524E-2,-1.9318181E-1,1.5329343E2,-3.809524E-2,-1.5238096E-1],"split_indices":[104,65,86,149,170,0,65,0,45,144,64,0,0,0,142,0,0,0,73,0,168,0,0,0,10,0,0],"split_type":[0,0,0,0,0,0,0,0,0,0,0,0,0,0,0,0,0,0,0,0,0,0,0,0,0,0,0],"sum_hessian":[4.08E2,3.33E2,7.5E1,2.21E2,1.12E2,2.3E1,5.2E1,3.4E1,1.87E2,4.3E1,6.9E1,2.1E1,3.1E1,3.1E1,1.56E2,2E1,2.3E1,2.1E1,4.8E1,2.9E1,1.27E2,2.8E1,2E1,8.7E1,4E1,2E1,2E1],"tree_param":{"num_deleted":"0","num_feature":"192","num_nodes":"27","size_leaf_vector":"0"}},{"base_weights":[-1.3445379E-1,5.869565E-1,-2.4038461E-1,1.7391305E-1,9.583333E-1,-4.342857E-1,7.246377E-3,3.478261E-1,-5.4901963E-1,-7.619048E-1,1.440678E-1,-3.0379745E-1,-8E-1,-4.3333334E-1,3.3707866E-1,-6.7391306E-1,2.0588236E-1,-9.4545454E-1,-3.809524E-1,5.507246E-1,-3.809524E-1,-8.8461536E-1,-3.809524E-1,2.1621622E-1,9.0909094E-1],"categories":[],"categories_nodes":[],"categories_segments":[],"categories_sizes":[],"default_left":[1,1,1,0,0,1,1,0,1,0,0,1,0,0,0,1,0,0,0,0,0,0,0,0,0],"id":12,"left_children":[1,3,5,-1,-1,7,9,-1,11,-1,13,15,17,-1,19,21,-1,-1,-1,23,-1,-1,-1,-1,-1],"loss_changes":[2.742289E1,6.889492E0,1.4984116E1,0E0,0E0,1.5894539E1,1.4632383E1,0E0,9.173492E0,0E0,1.3296541E1,1.5041342E1,4.211254E0,0E0,1.3862795E1,2.502468E0,0E0,0E0,0E0,8.074923E0,0E0,0E0,0E0,0E0,0E0],"parents":[2147483647,0,0,1,1,2,2,5,5,6,6,8,8,10,10,11,11,12,12,14,14,15,15,19,19],"right_children":[2,4,6,-1,-1,8,10,-1,12,-1,14,16,18,-1,20,22,-1,-1,-1,24,-1,-1,-1,-1,-1],"split_conditions":[4.808333E2,5.030552E1,1.39673E-1,3.478261E-2,1.9166666E-1,-8.257792E-1,5.047801E1,6.956522E-2,1.958164E1,-1.5238096E-1,2.75E1,6.4928406E1,5.4867523E1,-8.6666666E-2,5.5369446E1,8.506864E-2,4.117647E-2,-1.8909091E-1,-7.619048E-2,1.65E1,-7.619048E-2,-1.7692308E-1,-7.619048E-2,4.3243244E-2,1.8181819E-1],"split_indices":[13,85,15,0,0,157,85,0,88,0,110,85,103,0,127,15,0,0,0,104,0,0,0,0,0],"split_type":[0,0,0,0,0,0,0,0,0,0,0,0,0,0,0,0,0,0,0,0,0,0,0,0,0],"sum_hessian":[3.56E2,4.5E1,3.11E2,2.2E1,2.3E1,1.74E2,1.37E2,2.2E1,1.52E2,2E1,1.17E2,7.8E1,7.4E1,2.9E1,8.8E1,4.5E1,3.3E1,5.4E1,2E1,6.8E1,2E1,2.5E1,2E1,3.6E1,3.2E1],"tree_param":{"num_deleted":"0","num_feature":"192","num_nodes":"25","size_leaf_vector":"0"}}]},"name":"gbtree"},"name":"dart","weight_drop":[1E0,1E0,1E0,1E0,1E0,1E0,1E0,1E0,1E0,1E0,1E0,1E0,1E0]},"learner_model_param":{"base_score":"5E-1","num_class":"0","num_feature":"192","num_target":"1"},"objective":{"name":"binary:hinge"}},"version":[1,6,1]}