{"learner":{"attributes":{"best_iteration":"12","best_ntree_limit":"13","scikit_learn":"{\"use_label_encoder\": false, \"n_estimators\": 13, \"objective\": \"binary:hinge\", \"max_depth\": 8, \"max_leaves\": null, \"max_bin\": null, \"grow_policy\": null, \"learning_rate\": 0.2, \"verbosity\": null, \"booster\": \"dart\", \"tree_method\": null, \"gamma\": null, \"min_child_weight\": 20, \"max_delta_step\": null, \"subsample\": 0.5, \"sampling_method\": null, \"colsample_bytree\": 0.3, \"colsample_bylevel\": null, \"colsample_bynode\": null, \"reg_alpha\": null, \"reg_lambda\": null, \"scale_pos_weight\": 20, \"base_score\": null, \"missing\": -999, \"num_parallel_tree\": null, \"random_state\": null, \"n_jobs\": null, \"monotone_constraints\": null, \"interaction_constraints\": null, \"importance_type\": null, \"gpu_id\": null, \"validate_parameters\": null, \"predictor\": null, \"enable_categorical\": false, \"max_cat_to_onehot\": null, \"eval_metric\": null, \"early_stopping_rounds\": null, \"callbacks\": null, \"kwargs\": {\"seed\": 1337, \"nthread\": 4, \"silent\": 1}, \"classes_\": [0, 1], \"n_classes_\": 2, \"_estimator_type\": \"classifier\"}"},"feature_names":["ECG_Rate_Mean","HRV_MeanNN","HRV_SDNN","HRV_SDANN1","HRV_SDNNI1","HRV_SDANN2","HRV_SDNNI2","HRV_SDANN5","HRV_SDNNI5","HRV_RMSSD","HRV_SDSD","HRV_CVNN","HRV_CVSD","HRV_MedianNN","HRV_MadNN","HRV_MCVNN","HRV_IQRNN","HRV_pNN50","HRV_pNN20","HRV_HTI","HRV_TINN","HRV_ULF","HRV_VLF","HRV_LF","HRV_HF","HRV_VHF","HRV_LFHF","HRV_LFn","HRV_HFn","HRV_LnHF","HRV_SD1","HRV_SD2","HRV_SD1SD2","HRV_S","HRV_CSI","HRV_CVI","HRV_CSI_Modified","HRV_PIP","HRV_IALS","HRV_PSS","HRV_PAS","HRV_GI","HRV_SI","HRV_AI","HRV_PI","HRV_C1d","HRV_C1a","HRV_SD1d","HRV_SD1a","HRV_C2d","HRV_C2a","HRV_SD2d","HRV_SD2a","HRV_Cd","HRV_Ca","HRV_SDNNd","HRV_SDNNa","HRV_DFA_alpha1","HRV_DFA_alpha1_ExpRange","HRV_DFA_alpha1_ExpMean","HRV_DFA_alpha1_DimRange","HRV_DFA_alpha1_DimMean","HRV_ApEn","HRV_SampEn","HRV_ShanEn","HRV_FuzzyEn","HRV_MSE","HRV_CMSE","HRV_RCMSE","HRV_CD","HRV_HFD","HRV_KFD","HRV_LZC","PQMean","PQMin","PQMax","PQStd","PQSkew","PQKurt","PRMean","PRMin","PRMax","PRStd","PRSkew","PRKurt","PSMean","PSMin","PSMax","PSStd","PSSkew","PSKurt","PTMean","PTMin","PTMax","PTStd","PTSkew","PTKurt","QRMean","QRMin","QRMax","QRStd","QRSkew","QRKurt","QSMean","QSMin","QSMax","QSStd","QSSkew","QSKurt","QTMean","QTMin","QTMax","QTStd","QTSkew","QTKurt","RSMean","RSMin","RSMax","RSStd","RSSkew","RSKurt","RTMean","RTMin","RTMax","RTStd","RTSkew","RTKurt","STMean","STMin","STMax","STStd","STSkew","STKurt","RdPMean","RdPMin","RdPMax","RdPStd","RdPSkew","RdPKurt","RdQMean","RdQMin","RdQMax","RdQStd","RdQSkew","RdQKurt","RdTMean","RdTMin","RdTMax","RdTStd","RdTSkew","RdTKurt","RdSMean","RdSMin","RdSMax","RdSStd","RdSSkew","RdSKurt","PStatMean","PStatMin","PStatMax","PStatStd","PStatSkew","PStatKurt","QStatMean","QStatMin","QStatMax","QStatStd","QStatSkew","QStatKurt","RStatMean","RStatMin","RStatMax","RStatStd","RStatSkew","RStatKurt","SStatMean","SStatMin","SStatMax","SStatStd","SStatSkew","SStatKurt","TStatMean","TStatMin","TStatMax","TStatStd","TStatSkew","TStatKurt","HRV_DFA_alpha2","HRV_DFA_alpha2_ExpRange","HRV_DFA_alpha2_ExpMean","HRV_DFA_alpha2_DimRange","HRV_DFA_alpha2_DimMean"],"feature_types":["float","float","float","float","float","float","float","float","float","float","float","float","float","float","float","float","float","float","float","float","float","float","float","float","float","float","float","float","float","float","float","float","float","float","float","float","float","float","float","float","float","float","float","float","float","float","float","float","float","float","float","float","float","float","float","float","float","float","float","float","float","float","float","float","float","float","float","float","float","float","float","float","float","float","float","float","float","float","float","float","int","int","float","float","float","float","int","int","float","float","float","float","float","float","float","float","float","float","float","float","float","float","float","float","float","float","float","float","float","float","float","float","float","float","float","float","int","int","float","float","float","float","float","float","float","float","float","float","float","float","float","float","float","float","float","float","float","float","float","float","float","float","float","float","float","float","float","float","float","float","float","float","float","float","float","float","float","float","float","float","float","float","float","float","float","float","float","float","float","float","float","float","float","float","float","float","float","float","float","float","float","float","float","float","float","float","float","float","float","float","float","float"],"gradient_booster":{"gbtree":{"model":{"gbtree_model_param":{"num_parallel_tree":"1","num_trees":"13","size_leaf_vector":"0"},"tree_info":[0,0,0,0,0,0,0,0,0,0,0,0,0],"trees":[{"base_weights":[-5.0802845E-1,-9.003955E-1,5.6329733E-1,-9.429728E-1,9.21875E-1,-3.1075698E-1,8.478544E-1,-9.83004E-1,-4.021164E-1,-6.1271673E-1,3.5443038E-1,1.1594203E-1,9.186876E-1,-9.8887056E-1,-8.3809525E-1,-8.660714E-1,2.6923078E-1,-8.9320385E-1,-1.971831E-1,-4.090909E-1,6.3793105E-1,9.6875E-1,-6.052632E-1,9.423929E-1,2.4E-1,-9.912682E-1,-6.818182E-1,-5E-1,-9.166667E-1,-9.647059E-1,-5.3571427E-1,-8.5714287E-1,6.7241377E-1,-6.2068963E-1,-9.866667E-1,-7.111111E-1,6.666667E-1,1.3636364E-1,9.189189E-1,5.8E-1,9.697452E-1,-9.830508E-1,-7.307692E-1,9.142857E-1,2.9166666E-1,-3.809524E-1,-9.6E-1,3.2142857E-1,8.695652E-1,7.3170733E-1,9.846939E-1,4.7619048E-1,9.5238096E-1,9.947183E-1,6.666667E-1],"categories":[],"categories_nodes":[],"categories_segments":[],"categories_sizes":[],"default_left":[1,1,1,1,0,1,0,1,1,1,1,1,1,0,0,1,0,0,1,0,1,0,0,1,0,0,0,0,1,0,0,0,1,0,0,1,0,0,0,0,0,0,0,0,0,0,0,0,0,0,1,0,0,0,0],"id":0,"left_children":[1,3,5,7,-1,9,11,13,15,17,19,21,23,25,27,29,31,33,35,-1,37,-1,-1,39,-1,-1,-1,-1,41,-1,-1,-1,43,-1,-1,45,-1,-1,-1,47,49,-1,-1,-1,-1,-1,-1,-1,-1,51,53,-1,-1,-1,-1],"loss_changes":[1.5974282E3,2.166394E2,2.5370737E2,5.8452393E1,0E0,5.063298E1,3.9761353E1,1.3222656E0,5.910193E1,1.998735E1,1.7361217E1,4.3024765E1,1.105188E1,1.1101074E0,2.3309555E0,3.1326675E0,3.5998863E1,2.010994E0,3.1994991E1,0E0,8.048885E0,0E0,0E0,6.1481323E0,0E0,0E0,0E0,0E0,3.1822968E-1,0E0,0E0,0E0,5.074671E0,0E0,0E0,3.3320637E0,0E0,0E0,0E0,3.464161E0,1.5141602E0,0E0,0E0,0E0,0E0,0E0,0E0,0E0,0E0,1.858305E0,1.2114258E0,0E0,0E0,0E0,0E0],"parents":[2147483647,0,0,1,1,2,2,3,3,5,5,6,6,7,7,8,8,9,9,10,10,11,11,12,12,13,13,14,14,15,15,16,16,17,17,18,18,20,20,23,23,28,28,32,32,35,35,39,39,40,40,49,49,50,50],"right_children":[2,4,6,8,-1,10,12,14,16,18,20,22,24,26,28,30,32,34,36,-1,38,-1,-1,40,-1,-1,-1,-1,42,-1,-1,-1,44,-1,-1,46,-1,-1,-1,48,50,-1,-1,-1,-1,-1,-1,-1,-1,52,54,-1,-1,-1,-1],"split_conditions":[7.289901E1,1.3037262E2,8.529726E1,1.0291667E2,1.84375E-1,1.5690851E2,2.4121155E1,6.643192E1,8.722218E1,7.274275E1,7.5E0,5.2739583E-2,1.4830711E0,7.5030365E1,7.35E1,5.0675674E1,2.4725544E1,-4.0289217E-1,1.5468542E2,-8.1818186E-2,8.552381E1,1.9375001E-1,-1.2105264E-1,9.958333E1,4.8E-2,-1.9825365E-1,-1.3636364E-1,-1E-1,4.4281044E1,-1.9294117E-1,-1.0714286E-1,-1.7142858E-1,1.035E2,-1.2413793E-1,-1.9733334E-1,2.6608412E0,1.3333334E-1,2.727273E-2,1.8378378E-1,4.15E1,8.389917E0,-1.9661017E-1,-1.4615385E-1,1.8285714E-1,5.8333334E-2,-7.619048E-2,-1.92E-1,6.428572E-2,1.7391305E-1,1.2053839E1,2.0632849E2,9.52381E-2,1.904762E-1,1.9894366E-1,1.3333334E-1],"split_indices":[18,0,0,16,0,14,103,18,0,0,116,157,125,76,123,17,103,95,169,0,18,0,0,16,0,0,0,0,17,0,0,0,111,0,0,71,0,0,0,110,76,0,0,0,0,0,0,0,0,124,14,0,0,0,0],"split_type":[0,0,0,0,0,0,0,0,0,0,0,0,0,0,0,0,0,0,0,0,0,0,0,0,0,0,0,0,0,0,0,0,0,0,0,0,0,0,0,0,0,0,0,0,0,0,0,0,0,0,0,0,0,0,0],"sum_hessian":[3.798E3,2.78E3,1.018E3,2.717E3,6.3E1,2.5E2,7.68E2,2.529E3,1.88E2,1.72E2,7.8E1,6.8E1,7E2,2.425E3,1.04E2,1.11E2,7.7E1,1.02E2,7E1,2.1E1,5.7E1,3.1E1,3.7E1,6.76E2,2.4E1,2.404E3,2.1E1,2.1E1,8.3E1,8.4E1,2.7E1,2E1,5.7E1,2.8E1,7.4E1,4.4E1,2.6E1,2.1E1,3.6E1,4.9E1,6.27E2,5.8E1,2.5E1,3.4E1,2.3E1,2E1,2.4E1,2.7E1,2.2E1,4E1,5.87E2,2E1,2E1,5.67E2,2E1],"tree_param":{"num_deleted":"0","num_feature":"192","num_nodes":"55","size_leaf_vector":"0"}},{"base_weights":[-5.2372265E-1,-9.5938104E-1,3.7619808E-1,-9.7151774E-1,4.347826E-1,-6.2041885E-1,8.1285876E-1,-9.842932E-1,-5.6790125E-1,8.695652E-1,-7.138889E-1,8.89441E-1,-1.1940298E-1,-9.927505E-1,-8.345324E-1,-9.444444E-1,1.7857143E-1,-8.2371795E-1,-0E0,5.4310346E-1,9.463768E-1,-6.388889E-1,4.6875E-1,-9.9860466E-1,-9.2346936E-1,-5.4E-1,-9.8888886E-1,-8.981132E-1,-3.9583334E-1,-7.7272725E-1,6.0714287E-1,8.1914896E-1,-6.086956E-1,9.6677214E-1,7.118644E-1,-6.857143E-1,-9.691358E-1,-9E-1,-0E0,-4.7619048E-1,-9.3061227E-1,1.25E-1,-8.8E-1,3.809524E-1,9.324324E-1,9.8440206E-1,7.6785713E-1,4.1379312E-1,9.677419E-1,-9.929578E-1,-7.619048E-1,-9.583333E-1,-7E-1,9.945355E-1,7.586207E-1,9.166667E-1,4.7619048E-1,-9.939759E-1,-8.235294E-1],"categories":[],"categories_nodes":[],"categories_segments":[],"categories_sizes":[],"default_left":[1,1,1,1,0,1,1,1,1,0,1,0,0,1,1,0,0,1,0,1,1,0,0,0,1,1,0,1,1,0,0,1,0,1,1,0,1,0,0,0,1,0,0,0,0,0,1,0,0,0,0,1,0,0,0,0,0,0,0],"id":1,"left_children":[1,3,5,7,-1,9,11,13,15,-1,17,19,21,23,25,-1,-1,27,29,31,33,-1,-1,-1,35,37,-1,39,41,-1,-1,43,-1,45,47,-1,49,-1,-1,-1,51,-1,-1,-1,-1,53,55,-1,-1,-1,-1,57,-1,-1,-1,-1,-1,-1,-1],"loss_changes":[1.5042953E3,4.416211E1,5.45354E2,1.2656982E1,0E0,5.3821487E1,6.2290894E1,2.3164062E0,2.2936068E1,0E0,2.8226059E1,1.5359863E1,2.0770472E1,2.8808594E-2,5.7853546E0,0E0,0E0,9.576263E0,2.3457792E1,3.7380688E1,2.6120605E0,0E0,0E0,0E0,1.463501E0,9.719999E0,0E0,3.1905518E0,1.2214167E1,0E0,0E0,4.310993E0,0E0,1.4604492E0,4.09947E0,0E0,4.319763E-2,0E0,0E0,0E0,8.95401E-1,0E0,0E0,0E0,0E0,5.656738E-1,1.9940491E0,0E0,0E0,0E0,0E0,2.192688E-1,0E0,0E0,0E0,0E0,0E0,0E0,0E0],"parents":[2147483647,0,0,1,1,2,2,3,3,5,5,6,6,7,7,8,8,10,10,11,11,12,12,13,13,14,14,17,17,18,18,19,19,20,20,24,24,25,25,27,27,28,28,31,31,33,33,34,34,36,36,40,40,45,45,46,46,51,51],"right_children":[2,4,6,8,-1,10,12,14,16,-1,18,20,22,24,26,-1,-1,28,30,32,34,-1,-1,-1,36,38,-1,40,42,-1,-1,44,-1,46,48,-1,50,-1,-1,-1,52,-1,-1,-1,-1,54,56,-1,-1,-1,-1,58,-1,-1,-1,-1,-1,-1,-1],"split_conditions":[1.3635036E-1,1.2983337E2,1.1565721E0,5.7659714E1,8.695652E-2,4.55E2,9.95E1,4.1522987E1,1.0548292E-1,1.7391305E-1,5.0279894E0,2.6502525E1,-3.2218945E2,9.0188675E-2,5.0997484E-1,-1.8888889E-1,3.5714287E-2,1.124305E2,3.1175594E1,1.1478262E0,8.55E1,-1.2777779E-1,9.375E-2,-1.9972093E-1,-2.7571993E0,7.924008E1,-1.9777778E-1,-2.6817474E0,8.15E1,-1.5454546E-1,1.2142857E-1,7.9375E0,-1.2173913E-1,3.1811053E-1,-1.1757984E-12,-1.3714287E-1,2.375726E1,-1.7999999E-1,-0E0,-9.52381E-2,6.0922585E1,2.5E-2,-1.76E-1,7.619048E-2,1.8648648E-1,1.9302872E1,9.99896E1,8.275863E-2,1.9354838E-1,-1.9859156E-1,-1.5238096E-1,9.0506566E-1,-1.4E-1,1.989071E-1,1.5172414E-1,1.8333334E-1,9.52381E-2,-1.9879518E-1,-1.6470589E-1],"split_indices":[11,0,65,17,0,13,123,17,11,0,64,103,164,11,45,0,0,14,103,32,123,0,0,0,173,0,0,173,81,0,0,19,0,11,151,0,88,0,0,0,17,0,0,0,0,100,0,0,0,0,0,65,0,0,0,0,0,0,0],"split_type":[0,0,0,0,0,0,0,0,0,0,0,0,0,0,0,0,0,0,0,0,0,0,0,0,0,0,0,0,0,0,0,0,0,0,0,0,0,0,0,0,0,0,0,0,0,0,0,0,0,0,0,0,0,0,0,0,0,0,0],"sum_hessian":[3.835E3,2.584E3,1.251E3,2.562E3,2.2E1,3.81E2,8.7E2,2.482E3,8E1,2.2E1,3.59E2,8.04E2,6.6E1,2.344E3,1.38E2,5.3E1,2.7E1,3.11E2,4.8E1,1.15E2,6.89E2,3.5E1,3.1E1,2.149E3,1.95E2,4.9E1,8.9E1,2.64E2,4.7E1,2.1E1,2.7E1,9.3E1,2.2E1,6.31E2,5.8E1,3.4E1,1.61E2,2.9E1,2E1,2E1,2.44E2,2.3E1,2.4E1,2E1,7.3E1,5.76E2,5.5E1,2.8E1,3E1,1.41E2,2E1,2.15E2,2.9E1,5.48E2,2.8E1,3.5E1,2E1,1.65E2,5E1],"tree_param":{"num_deleted":"0","num_feature":"192","num_nodes":"59","size_leaf_vector":"0"}},{"base_weights":[-5.096692E-1,-9.310225E-1,6.529637E-1,-9.560787E-1,8.75E-1,-3.8297874E-1,8.134658E-1,-9.864754E-1,-7.714988E-1,-8.52459E-1,-2.4691358E-2,-6.779661E-2,8.738208E-1,-9.925275E-1,-8.9759034E-1,-8.6725664E-1,-2.8985506E-1,-9.75E-1,-5.9090906E-1,-6.2068963E-1,3.018868E-1,-5.714286E-1,6.4E-1,9.325997E-1,5.163934E-1,-9.6575344E-1,-3.809524E-1,-9.217687E-1,-5E-1,-6.875E-1,5.9090906E-1,7.741935E-1,-3.478261E-1,9.614792E-1,6.835443E-1,7.1E-1,-3.478261E-1,-9.9206346E-1,-7.619048E-1,-9.5255476E-1,-4.7619048E-1,-1.3636364E-1,-8E-1,-3.75E-1,-9.6E-1,6.896552E-1,9.726248E-1,8.703704E-1,2.6923078E-1,8.75E-1,2.7586207E-1,-9.8734176E-1,-7.105263E-1,9.8169714E-1,6.666667E-1,9.705882E-1,6.666667E-1,9.807692E-1,5.714286E-1,7.7272725E-1,9.87931E-1],"categories":[],"categories_nodes":[],"categories_segments":[],"categories_sizes":[],"default_left":[1,1,1,1,0,0,1,1,0,1,0,1,1,0,1,1,1,0,0,0,1,0,0,0,1,0,0,1,0,1,0,0,0,1,0,1,0,0,0,0,0,0,0,0,0,0,1,1,0,1,0,0,0,0,0,0,0,0,0,0,0],"id":2,"left_children":[1,3,5,7,-1,9,11,13,15,17,19,21,23,-1,25,27,29,-1,-1,-1,31,-1,-1,33,35,37,-1,39,41,43,-1,-1,-1,45,47,49,-1,-1,-1,51,-1,-1,-1,-1,-1,-1,53,55,-1,57,-1,-1,-1,59,-1,-1,-1,-1,-1,-1,-1],"loss_changes":[1.9258333E3,1.3138867E2,1.7423096E2,1.5206543E1,0E0,2.36964E1,4.8248047E1,4.2163086E-1,1.8519928E1,1.3789482E0,1.5953218E1,2.1397385E1,1.7334229E1,0E0,5.47789E0,6.3258667E0,2.4572216E1,0E0,0E0,0E0,1.6533064E1,0E0,0E0,4.5717773E0,2.065982E1,2.7175903E-2,0E0,3.5793762E0,4.90909E0,3.727501E0,0E0,0E0,0E0,1.2954712E0,5.8806305E0,6.921898E0,0E0,0E0,0E0,1.6053925E0,0E0,0E0,0E0,0E0,0E0,0E0,1.0692749E0,4.5533752E-1,0E0,1.7513733E0,0E0,0E0,0E0,1.9470215E-2,0E0,0E0,0E0,0E0,0E0,0E0,0E0],"parents":[2147483647,0,0,1,1,2,2,3,3,5,5,6,6,7,7,8,8,9,9,10,10,11,11,12,12,14,14,15,15,16,16,20,20,23,23,24,24,25,25,27,27,28,28,29,29,33,33,34,34,35,35,39,39,46,46,47,47,49,49,53,53],"right_children":[2,4,6,8,-1,10,12,14,16,18,20,22,24,-1,26,28,30,-1,-1,-1,32,-1,-1,34,36,38,-1,40,42,44,-1,-1,-1,46,48,50,-1,-1,-1,52,-1,-1,-1,-1,-1,-1,54,56,-1,58,-1,-1,-1,60,-1,-1,-1,-1,-1,-1,-1],"split_conditions":[1.0578564E-1,1.3134038E2,1.1231022E0,1.3517348E-1,1.75E-1,1.203321E0,7.3871895E1,2.7941715E1,2.4213726E1,1.5043134E2,1.699643E1,2.1369566E-1,-1.4966437E-1,-1.985055E-1,7.12975E-2,1.3330612E0,1.1212448E0,-1.9500001E-1,-1.1818182E-1,-1.2413793E-1,7.366666E2,-1.1428572E-1,1.28E-1,1.55E1,5.736916E-1,1.93E2,-7.619048E-2,9.061241E-2,1.4613485E0,5.379355E-1,1.1818182E-1,1.5483871E-1,-6.956522E-2,1.2147276E0,4.0263096E1,3.628499E-1,-6.956522E-2,-1.984127E-1,-1.5238096E-1,3.2735217E-1,-9.52381E-2,-2.727273E-2,-1.6000001E-1,-7.5E-2,-1.92E-1,1.3793103E-1,8.7135056E1,9.739522E-2,5.3846158E-2,2.628548E0,5.5172414E-2,-1.9746836E-1,-1.4210527E-1,3.85E1,1.3333334E-1,1.9411765E-1,1.3333334E-1,1.9615385E-1,1.1428572E-1,1.5454546E-1,1.9758621E-1],"split_indices":[15,0,65,12,0,187,0,97,97,2,97,15,84,0,12,65,65,0,0,0,1,0,0,74,45,75,0,15,107,83,0,0,0,65,73,12,0,0,0,182,0,0,0,0,0,0,85,24,0,58,0,0,0,75,0,0,0,0,0,0,0],"split_type":[0,0,0,0,0,0,0,0,0,0,0,0,0,0,0,0,0,0,0,0,0,0,0,0,0,0,0,0,0,0,0,0,0,0,0,0,0,0,0,0,0,0,0,0,0,0,0,0,0,0,0,0,0,0,0,0,0,0,0,0,0],"sum_hessian":[3.929E3,2.884E3,1.045E3,2.845E3,3.9E1,1.4E2,9.05E2,2.439E3,4.06E2,6E1,8E1,5.8E1,8.47E2,2.274E3,1.65E2,3.38E2,6.8E1,3.9E1,2.1E1,2.8E1,5.2E1,3.4E1,2.4E1,7.26E2,1.21E2,1.45E2,2E1,2.93E2,4.5E1,4.7E1,2.1E1,3E1,2.2E1,6.48E2,7.8E1,9.9E1,2.2E1,1.25E2,2E1,2.73E2,2E1,2.1E1,2.4E1,2.3E1,2.4E1,2.8E1,6.2E2,5.3E1,2.5E1,7.1E1,2.8E1,2.36E2,3.7E1,6E2,2E1,3.3E1,2E1,5.1E1,2E1,2.1E1,5.79E2],"tree_param":{"num_deleted":"0","num_feature":"192","num_nodes":"61","size_leaf_vector":"0"}},{"base_weights":[-7.810241E-1,-9.687747E-1,-1.795196E-1,-1.3636364E-1,-9.756875E-1,-6.377778E-1,4.239766E-1,-3.809524E-1,-9.8031336E-1,-7.6902175E-1,-4.819277E-2,6.9124424E-1,-3.968254E-2,-9.942579E-1,-8.362832E-1,-9.2083335E-1,-4.8062015E-1,-6.3829786E-1,7.027027E-1,-1.9354838E-1,8.342246E-1,-5E-1,4E-1,-5E-1,-9.467456E-1,-9.579439E-1,-5.925926E-1,-7.282609E-1,1.3157895E-1,-9.583333E-1,-2.9166666E-1,3.2142857E-1,9.1875E-1,-0E0,-8.1578946E-1,7.878788E-1,-0E0,2.2727273E-1,-9.189189E-1,-9.791667E-1,-7.307692E-1,-9.836956E-1,-7.741935E-1,-3.4615386E-1,-8.6567163E-1,9.6183205E-1,7E-1,-9.767442E-1,-6.4E-1,9.90991E-1,7.619048E-1],"categories":[],"categories_nodes":[],"categories_segments":[],"categories_sizes":[],"default_left":[1,0,1,0,1,1,1,0,1,1,0,0,0,0,1,1,0,1,0,0,1,1,1,1,1,1,0,0,0,0,0,0,1,0,0,0,0,0,0,0,0,0,0,0,0,0,0,0,0,0,0],"id":3,"left_children":[1,3,5,-1,7,9,11,-1,13,15,17,19,21,-1,23,25,27,29,-1,-1,31,33,35,37,39,41,-1,43,-1,-1,-1,-1,45,-1,-1,-1,-1,-1,-1,-1,-1,-1,-1,-1,47,49,-1,-1,-1,-1,-1],"loss_changes":[3.7476306E2,1.4425537E1,2.1902704E2,0E0,6.5290527E0,3.478369E1,4.240844E1,0E0,4.1677246E0,1.5669464E1,3.7226433E1,2.7613686E1,2.5701588E1,0E0,7.921768E0,2.3558197E0,1.9652924E1,4.9343967E0,0E0,0E0,7.8100586E0,9.7894745E0,1.0084848E1,1.7879608E1,4.678192E-1,2.5105286E-1,0E0,4.530857E0,0E0,0E0,0E0,0E0,8.345947E-1,0E0,0E0,0E0,0E0,0E0,0E0,0E0,0E0,0E0,0E0,0E0,1.0542984E0,8.644104E-3,0E0,0E0,0E0,0E0,0E0],"parents":[2147483647,0,0,1,1,2,2,4,4,5,5,6,6,8,8,9,9,10,10,11,11,12,12,14,14,15,15,16,16,17,17,20,20,21,21,22,22,23,23,24,24,25,25,27,27,32,32,44,44,45,45],"right_children":[2,4,6,-1,8,10,12,-1,14,16,18,20,22,-1,24,26,28,30,-1,-1,32,34,36,38,40,42,-1,44,-1,-1,-1,-1,46,-1,-1,-1,-1,-1,-1,-1,-1,-1,-1,-1,48,50,-1,-1,-1,-1,-1],"split_conditions":[1.2028639E-1,-1.1976227E-13,1.1974189E0,-2.727273E-2,-2.5470966E1,4.9577756E0,-4.9565682E-1,-7.619048E-2,8.901331E-2,8.9054984E-1,1.8719727E1,-1.8117429E2,1.7611897E1,-1.9885159E-1,-2.7342212E-1,8.052168E-1,2.0752907E1,1.7959294E-1,1.4054054E-1,-3.8709678E-2,5.763403E-1,1.8359375E2,1.8304086E-1,4.9964405E1,6.925075E-1,4.6178055E0,-1.18518524E-1,-8.1825197E-1,2.6315792E-2,-1.9166666E-1,-5.8333334E-2,6.428572E-2,2.95E1,-0E0,-1.631579E-1,1.5757577E-1,-0E0,4.5454547E-2,-1.8378378E-1,-1.9583334E-1,-1.4615385E-1,-1.9673912E-1,-1.5483871E-1,-6.923077E-2,1.1788409E0,2.6646042E0,1.4E-1,-1.9534884E-1,-1.28E-1,1.981982E-1,1.5238096E-1],"split_indices":[11,145,65,0,157,64,84,0,11,65,97,163,97,0,84,38,97,172,0,0,38,20,157,56,49,64,0,114,0,0,0,0,80,0,0,0,0,0,0,0,0,0,0,0,113,95,0,0,0,0,0],"split_type":[0,0,0,0,0,0,0,0,0,0,0,0,0,0,0,0,0,0,0,0,0,0,0,0,0,0,0,0,0,0,0,0,0,0,0,0,0,0,0,0,0,0,0,0,0,0,0,0,0,0,0],"sum_hessian":[3.319E3,2.529E3,7.9E2,2.1E1,2.508E3,4.49E2,3.41E2,2E1,2.488E3,3.67E2,8.2E1,2.16E2,1.25E2,2.263E3,2.25E2,2.39E2,1.28E2,4.6E1,3.6E1,3E1,1.86E2,6.1E1,6.4E1,5.7E1,1.68E2,2.13E2,2.6E1,9.1E1,3.7E1,2.3E1,2.3E1,2.7E1,1.59E2,2.4E1,3.7E1,3.2E1,3.2E1,2.1E1,3.6E1,1.43E2,2.5E1,1.83E2,3E1,2.5E1,6.6E1,1.3E2,2.9E1,4.2E1,2.4E1,1.1E2,2E1],"tree_param":{"num_deleted":"0","num_feature":"192","num_nodes":"51","size_leaf_vector":"0"}},{"base_weights":[-8.548946E-1,-9.646925E-1,-3.216912E-1,-9.906166E-1,-8.161209E-1,-5.026042E-1,1.11801244E-1,-9.9413884E-1,-5.714286E-1,-8.610354E-1,-2.580645E-1,-6.6083914E-1,-4.040404E-2,-9.72973E-1,4.32E-1,-9.967949E-1,-8E-1,-5.714286E-1,-9.347079E-1,-4.0151516E-1,-8.7741935E-1,4.0384614E-1,-5.208333E-1,1.0526316E-1,6.956522E-1,-9.9861366E-1,-7.619048E-1,-0E0,-8.627451E-1,-9.7244096E-1,-6.5789473E-1,1.6666668E-2,-7.39726E-1,-9.6031743E-1,-5E-1,4.1666668E-2,6.896552E-1,-4.5454547E-2,-8.888889E-1,4.3333334E-1,-2.5E-1,2.857143E-1,8.5714287E-1,-6.666667E-1,-9.677419E-1,-7.619048E-1,-9.8717946E-1,3.8235295E-1,-4.4444445E-1,-9.3333334E-1,-4.1379312E-1,-9.90566E-1,-7.619048E-1,6.666667E-1,9.655172E-1],"categories":[],"categories_nodes":[],"categories_segments":[],"categories_sizes":[],"default_left":[1,1,1,0,1,1,1,1,0,1,0,1,1,0,0,0,0,1,1,1,0,1,1,1,0,0,0,0,0,1,0,0,1,1,0,0,0,0,0,0,0,0,1,0,0,0,0,0,0,0,0,0,0,0,0],"id":4,"left_children":[1,3,5,7,9,11,13,15,-1,17,-1,19,21,-1,23,25,-1,27,29,31,33,35,37,39,41,-1,-1,-1,43,45,-1,47,49,51,-1,-1,-1,-1,-1,-1,-1,-1,53,-1,-1,-1,-1,-1,-1,-1,-1,-1,-1,-1,-1],"loss_changes":[1.8568604E2,9.336426E0,4.2719067E1,2.7363281E0,9.728516E0,2.805761E1,5.6342606E1,3.461914E-1,0E0,7.296234E0,0E0,1.5710747E1,2.1339987E1,0E0,1.0694885E1,1.7211914E-1,0E0,1.2817928E1,2.3997345E0,1.8681568E1,4.369377E0,5.354001E0,8.357955E0,6.7517543E0,4.322983E0,0E0,0E0,0E0,4.0480804E-1,3.6026E-2,0E0,1.0287255E1,4.220314E0,1.5029907E-3,0E0,0E0,0E0,0E0,0E0,0E0,0E0,0E0,3.6781693E-1,0E0,0E0,0E0,0E0,0E0,0E0,0E0,0E0,0E0,0E0,0E0,0E0],"parents":[2147483647,0,0,1,1,2,2,3,3,4,4,5,5,6,6,7,7,9,9,11,11,12,12,14,14,15,15,17,17,18,18,19,19,20,20,21,21,22,22,23,23,24,24,28,28,29,29,31,31,32,32,33,33,42,42],"right_children":[2,4,6,8,10,12,14,16,-1,18,-1,20,22,-1,24,26,-1,28,30,32,34,36,38,40,42,-1,-1,-1,44,46,-1,48,50,52,-1,-1,-1,-1,-1,-1,-1,-1,54,-1,-1,-1,-1,-1,-1,-1,-1,-1,-1,-1,-1],"split_conditions":[4.7580017E1,9.5674895E-2,1.5263546E0,6.8935455E1,1.25E1,9.5E0,1.1678482E-1,8.1375635E-1,-1.1428572E-1,2.55E1,-5.1612902E-2,-4.4149616E-1,1.5125769E2,-1.945946E-1,1.65E1,2.2950378E2,-1.6000001E-1,-3.8977364E-1,1.3583334E2,1.1111835E1,1.2414045E1,1.7458333E2,-5.4369E-1,7.585046E0,-7.432364E-12,-1.9972274E-1,-1.5238096E-1,-0E0,1.0677361E0,6.265065E1,-1.3157895E-1,4.9046865E-1,1.9916666E2,-2.112339E0,-1E-1,8.333334E-3,1.3793103E-1,-9.09091E-3,-1.7777778E-1,8.6666666E-2,-5E-2,5.714286E-2,2.2501634E-1,-1.3333334E-1,-1.9354838E-1,-1.5238096E-1,-1.974359E-1,7.647059E-2,-8.888889E-2,-1.8666667E-1,-8.275863E-2,-1.981132E-1,-1.5238096E-1,1.3333334E-1,1.9310345E-1],"split_indices":[17,11,65,144,116,116,12,37,0,80,0,84,183,0,104,91,0,84,16,118,100,16,84,118,146,0,0,0,101,9,0,131,16,29,0,0,0,0,0,0,0,0,61,0,0,0,0,0,0,0,0,0,0,0,0],"split_type":[0,0,0,0,0,0,0,0,0,0,0,0,0,0,0,0,0,0,0,0,0,0,0,0,0,0,0,0,0,0,0,0,0,0,0,0,0,0,0,0,0,0,0,0,0,0,0,0,0,0,0,0,0,0,0],"sum_hessian":[3.176E3,2.633E3,5.43E2,2.237E3,3.96E2,3.83E2,1.6E2,2.217E3,2E1,3.66E2,3E1,2.85E2,9.8E1,3.6E1,1.24E2,2.183E3,3.4E1,7.6E1,2.9E2,1.31E2,1.54E2,5.1E1,4.7E1,5.6E1,6.8E1,2.163E3,2E1,2.6E1,5E1,2.53E2,3.7E1,5.9E1,7.2E1,1.25E2,2.9E1,2.3E1,2.8E1,2.1E1,2.6E1,2.9E1,2.7E1,2E1,4.8E1,2E1,3E1,2E1,2.33E2,3.3E1,2.6E1,4.4E1,2.8E1,1.05E2,2E1,2E1,2.8E1],"tree_param":{"num_deleted":"0","num_feature":"192","num_nodes":"55","size_leaf_vector":"0"}},{"base_weights":[-8.5774463E-1,-9.662832E-1,-3.7279153E-1,-9.8491377E-1,-7.4752474E-1,-6.3438255E-1,3.3116883E-1,-5.714286E-1,-9.8826087E-1,-8.678161E-1,-0E0,5.714286E-1,-6.97201E-1,5.116279E-1,-5.769231E-1,-9.97505E-1,-9.225589E-1,-2.857143E-1,-9.415584E-1,-4.8095238E-1,-9.402174E-1,7.070707E-1,-1.2903225E-1,-9.778761E-1,-7.361111E-1,-9.7761196E-1,-6.666667E-1,-9.21875E-1,-2.857143E-1,-9.8170733E-1,-5.714286E-1,9.206349E-1,3.243243E-1,-9.951456E-1,-7.619048E-1,-9.7959185E-1,-2.0833333E-1,2.1428572E-1,-7.307692E-1,-2.2857143E-1,6.388889E-1,-2.9166666E-1,-9.0909094E-1],"categories":[],"categories_nodes":[],"categories_segments":[],"categories_sizes":[],"default_left":[1,1,0,1,0,1,1,0,1,1,0,0,1,1,0,0,1,0,0,0,1,0,0,0,1,0,0,0,1,0,0,0,0,0,0,0,0,0,1,0,0,0,0],"id":5,"left_children":[1,3,5,7,9,11,13,-1,15,17,-1,-1,19,21,-1,-1,23,-1,25,27,29,31,-1,33,35,-1,-1,-1,37,-1,-1,-1,-1,-1,-1,-1,-1,39,41,-1,-1,-1,-1],"loss_changes":[1.620747E2,9.53833E0,1.0443883E2,2.645996E0,1.8164001E1,3.1681992E1,2.5531677E1,0E0,4.7680664E-1,7.200012E0,0E0,0E0,2.0200714E1,1.6243637E1,0E0,0E0,2.3433685E0,0E0,8.74527E-1,1.7814434E1,2.2544098E0,7.793766E0,0E0,8.470154E-2,9.048187E0,0E0,0E0,0E0,3.2868134E1,0E0,0E0,0E0,0E0,0E0,0E0,0E0,0E0,1.330873E1,5.8423653E0,0E0,0E0,0E0,0E0],"parents":[2147483647,0,0,1,1,2,2,3,3,4,4,5,5,6,6,8,8,9,9,12,12,13,13,16,16,18,18,19,19,20,20,21,21,23,23,24,24,28,28,37,37,38,38],"right_children":[2,4,6,8,10,12,14,-1,16,18,-1,-1,20,22,-1,-1,24,-1,26,28,30,32,-1,34,36,-1,-1,-1,38,-1,-1,-1,-1,-1,-1,-1,-1,40,42,-1,-1,-1,-1],"split_conditions":[1.3795888E-1,1.0028504E-1,1.1688383E0,-2.5413603E1,2.3858536E1,-8.707197E-15,3.5546875E2,-1.1428572E-1,7.28517E-2,4.2087082E1,-0E0,1.1428572E-1,5.8214986E-1,1.6233688E1,-1.15384616E-1,-1.9950101E-1,2.3284335E-2,-5.714286E-2,7.1845815E-2,1.1343333E-1,7.2456896E-1,1.6487238E0,-2.5806451E-2,3.860479E0,1.8302844E0,-1.955224E-1,-1.3333334E-1,-1.84375E-1,2.0287228E1,-1.9634147E-1,-1.1428572E-1,1.8412699E-1,6.486487E-2,-1.9902913E-1,-1.5238096E-1,-1.9591837E-1,-4.1666668E-2,3.3146438E-1,7.9040643E2,-4.5714285E-2,1.2777779E-1,-5.8333334E-2,-1.8181819E-1],"split_indices":[11,11,63,157,97,145,20,0,11,52,0,0,83,118,0,0,25,0,25,181,37,101,0,185,159,0,0,0,88,0,0,0,0,0,0,0,0,166,36,0,0,0,0],"split_type":[0,0,0,0,0,0,0,0,0,0,0,0,0,0,0,0,0,0,0,0,0,0,0,0,0,0,0,0,0,0,0,0,0,0,0,0,0,0,0,0,0,0,0],"sum_hessian":[3.085E3,2.52E3,5.65E2,2.319E3,2.01E2,4.12E2,1.53E2,2E1,2.299E3,1.73E2,2.8E1,2E1,3.92E2,1.28E2,2.5E1,2.003E3,2.96E2,2E1,1.53E2,2.09E2,1.83E2,9.8E1,3E1,2.25E2,7.1E1,1.33E2,2E1,6.3E1,1.46E2,1.63E2,2E1,6.2E1,3.6E1,2.05E2,2E1,4.8E1,2.3E1,6.9E1,7.7E1,3.4E1,3.5E1,2.3E1,5.4E1],"tree_param":{"num_deleted":"0","num_feature":"192","num_nodes":"43","size_leaf_vector":"0"}},{"base_weights":[-8.817308E-1,-9.8243463E-1,-5.1411587E-1,-6.7391306E-1,-9.879317E-1,-6.8222624E-1,2.905983E-1,-9.6153843E-1,-2.857143E-1,-9.903442E-1,-6.818182E-1,-7.936508E-1,-2.5641027E-1,4.456522E-1,-2.6923078E-1,-9.9598575E-1,-8.9361703E-1,-9.52381E-2,-8.2660335E-1,-8.1632656E-1,1.4492753E-1,7.1666664E-1,-6.0606062E-2,-9.752066E-1,-3.809524E-1,-9.439655E-1,-6.789474E-1,-5.714286E-1,-9.655172E-1,7.586207E-1,-2.9268292E-1,3.181818E-1,9.230769E-1,-9.669811E-1,-6.666667E-1,-4.9541286E-1,-9.1463417E-1,9.52381E-2,-6.666667E-1,-9.84375E-1,-7.619048E-1,9.52381E-2,-6.292135E-1,-9.83871E-1,-6.666667E-1,-2.4242425E-1,-8.4210527E-1],"categories":[],"categories_nodes":[],"categories_segments":[],"categories_sizes":[],"default_left":[1,1,1,0,1,0,1,0,0,1,0,0,1,0,0,0,0,0,1,1,0,1,0,0,0,1,1,0,0,0,1,0,0,1,0,1,1,0,0,0,0,0,0,0,0,0,0],"id":6,"left_children":[1,3,5,7,9,11,13,-1,-1,15,-1,17,19,21,-1,-1,23,-1,25,27,29,31,-1,-1,-1,33,35,-1,-1,-1,37,-1,-1,39,-1,41,43,-1,-1,-1,-1,-1,45,-1,-1,-1,-1],"loss_changes":[1.1499805E2,3.486084E0,9.124222E1,4.8614426E0,1.0993652E0,2.6224121E1,1.0276013E1,0E0,0E0,4.0966797E-1,0E0,1.0070679E1,2.641003E1,1.266614E1,0E0,0E0,5.5262604E0,0E0,6.654724E0,1.2385635E0,1.8752575E1,4.6413746E0,0E0,0E0,0E0,8.3599854E-1,7.7656403E0,0E0,0E0,0E0,6.0116143E0,0E0,0E0,6.225586E-3,0E0,8.674137E0,7.518997E-1,0E0,0E0,0E0,0E0,0E0,7.124489E0,0E0,0E0,0E0,0E0],"parents":[2147483647,0,0,1,1,2,2,3,3,4,4,5,5,6,6,9,9,11,11,12,12,13,13,16,16,18,18,19,19,20,20,21,21,25,25,26,26,30,30,33,33,35,35,36,36,42,42],"right_children":[2,4,6,8,10,12,14,-1,-1,16,-1,18,20,22,-1,-1,24,-1,26,28,30,32,-1,-1,-1,34,36,-1,-1,-1,38,-1,-1,40,-1,42,44,-1,-1,-1,-1,-1,46,-1,-1,-1,-1],"split_conditions":[1.0899307E-1,2.35E1,1.4220207E0,3.3319507E0,2.2717596E1,2.3415756E1,1.171098E0,-1.923077E-1,-5.714286E-2,9.0188675E-2,-1.3636364E-1,-1.3805141E0,7.871506E-1,1.8875168E1,-5.3846158E-2,-1.9919716E-1,2.2889706E1,-1.904762E-2,7.1652156E-1,1.0276439E0,2.0670876E1,9.16722E-1,-1.2121213E-2,-1.9504133E-1,-7.619048E-2,4.5019355E-2,7.1960855E-1,-1.1428572E-1,-1.9310345E-1,1.5172414E-1,6.247169E-1,6.363636E-2,1.8461539E-1,3.6621582E1,-1.3333334E-1,1.05847645E1,1.2857347E2,1.904762E-2,-1.3333334E-1,-1.96875E-1,-1.5238096E-1,1.904762E-2,3.5597873E-1,-1.967742E-1,-1.3333334E-1,-4.848485E-2,-1.6842106E-1],"split_indices":[11,80,65,96,100,97,89,0,0,11,0,114,65,124,0,0,97,0,63,72,112,69,0,0,0,158,84,0,0,0,89,0,0,138,0,88,2,0,0,0,0,0,185,0,0,0,0],"split_type":[0,0,0,0,0,0,0,0,0,0,0,0,0,0,0,0,0,0,0,0,0,0,0,0,0,0,0,0,0,0,0,0,0,0,0,0,0,0,0,0,0,0,0,0,0,0,0],"sum_hessian":[3.119E3,2.447E3,6.72E2,4.5E1,2.402E3,5.56E2,1.16E2,2.5E1,2E1,2.381E3,2.1E1,4.4E2,1.16E2,9.1E1,2.5E1,2.241E3,1.4E2,2E1,4.2E2,4.8E1,6.8E1,5.9E1,3.2E1,1.2E2,2E1,2.31E2,1.89E2,2E1,2.8E1,2.8E1,4E1,2.1E1,3.8E1,2.11E2,2E1,1.08E2,8.1E1,2E1,2E1,1.91E2,2E1,2E1,8.8E1,6.1E1,2E1,3.2E1,5.6E1],"tree_param":{"num_deleted":"0","num_feature":"192","num_nodes":"47","size_leaf_vector":"0"}},{"base_weights":[-8.930324E-1,-9.630898E-1,-4.627907E-1,-9.831679E-1,-8.108974E-1,-7.813954E-1,-1.4351852E-1,-7.6666665E-1,-9.855769E-1,-1.6666667E-1,-8.763251E-1,-3.4285715E-1,-8.6187845E-1,3.0985916E-1,-3.6301368E-1,-9.872078E-1,-7.7272725E-1,-9.5238096E-1,-5.283019E-1,-4.8E-1,-9.1719747E-1,5.952381E-1,-1E-1,2.0588236E-1,-5.3097343E-1,-9.7607654E-1,-6.956522E-1,-1.25E-1,-8.333333E-1,-6.333333E-1,-9.765625E-1,2.857143E-1,8.636364E-1,-7.5E-1,1E-1,-7.619048E-1,-9.94709E-1,-3.7037036E-1,-9.137931E-1],"categories":[],"categories_nodes":[],"categories_segments":[],"categories_sizes":[],"default_left":[1,0,0,0,0,0,0,0,1,0,1,0,0,1,0,0,0,1,0,0,0,1,0,0,0,0,0,0,0,0,0,0,0,0,0,0,0,0,0],"id":7,"left_children":[1,3,5,7,9,11,13,-1,15,-1,17,-1,19,21,23,-1,-1,25,27,-1,29,31,-1,-1,33,35,-1,-1,-1,-1,-1,-1,-1,37,-1,-1,-1,-1,-1],"loss_changes":[9.1697266E1,7.2331543E0,4.3628143E1,4.5288086E-1,1.3004898E1,7.2929077E0,2.1607552E1,0E0,3.149414E-2,0E0,6.987625E0,0E0,3.3833923E0,8.364052E0,1.4059858E1,0E0,0E0,7.2624207E-1,6.415881E0,0E0,2.0272217E0,3.242422E0,0E0,0E0,1.5691591E1,7.6156616E-2,0E0,0E0,0E0,0E0,0E0,0E0,0E0,4.884739E0,0E0,0E0,0E0,0E0,0E0],"parents":[2147483647,0,0,1,1,2,2,3,3,4,4,5,5,6,6,8,8,10,10,12,12,13,13,14,14,17,17,18,18,20,20,21,21,24,24,25,25,33,33],"right_children":[2,4,6,8,10,12,14,-1,16,-1,18,-1,20,22,24,-1,-1,26,28,-1,30,32,-1,-1,34,36,-1,-1,-1,-1,-1,-1,-1,38,-1,-1,-1,-1,-1],"split_conditions":[7.273793E1,1.235E2,7.696811E-1,1.15E1,7.5E0,-1.8353859E-1,-5.1146608E-2,-1.5333334E-1,3.09E2,-3.3333335E-2,7.0967865E1,-6.857143E-2,2.1698248E9,2.2294334E-13,8.5E0,-1.9744156E-1,-1.5454546E-1,2.9358046E-2,6.6949644E0,-9.6E-2,5.95E1,4.7285683E1,-2.0000001E-2,4.117647E-2,2.2676397E1,3.181353E8,-1.3913044E-1,-2.5E-2,-1.6666667E-1,-1.2666667E-1,-1.953125E-1,5.714286E-2,1.7272727E-1,7.5161546E-1,2.0000001E-2,-1.5238096E-1,-1.9894181E-1,-7.4074075E-2,-1.8275861E-1],"split_indices":[56,75,63,104,128,150,149,0,111,0,9,0,142,153,128,0,0,25,78,0,129,79,0,0,97,142,0,0,0,0,0,0,0,149,0,0,0,0,0],"split_type":[0,0,0,0,0,0,0,0,0,0,0,0,0,0,0,0,0,0,0,0,0,0,0,0,0,0,0,0,0,0,0,0,0,0,0,0,0,0,0],"sum_hessian":[3.056E3,2.627E3,4.29E2,2.316E3,3.11E2,2.14E2,2.15E2,2.9E1,2.287E3,2.9E1,2.82E2,3.4E1,1.8E2,7E1,1.45E2,2.266E3,2.1E1,2.3E2,5.2E1,2.4E1,1.56E2,4.1E1,2.9E1,3.3E1,1.12E2,2.08E2,2.2E1,2.3E1,2.9E1,2.9E1,1.27E2,2E1,2.1E1,8.3E1,2.9E1,2E1,1.88E2,2.6E1,5.7E1],"tree_param":{"num_deleted":"0","num_feature":"192","num_nodes":"39","size_leaf_vector":"0"}},{"base_weights":[-5.383663E-1,-8.173077E-1,-3.6217305E-1,-3.611111E-1,-8.736462E-1,-6.628788E-1,-2.1367522E-2,-7.941176E-1,-9.907407E-1,-1.5277778E-1,-8.497409E-1,1.741573E-1,-6.315789E-1,-8.623188E-1,-4.848485E-1,-4.3137255E-1,5E-1,-9.1071427E-1,-4.2307693E-1,-4.848485E-1,3.219178E-1,-9.117647E-1,-2.0833333E-1,-6.060606E-1,-9.339623E-1,-0E0,-8.8E-1,-6.75E-1,-9.767442E-1,1.5929204E-1,8.5294116E-1,-9.883721E-1,-6.666667E-1,3.152174E-1,-5E-1,4.5833334E-1,-1.904762E-1,8.965517E-1,1.590909E-1],"categories":[],"categories_nodes":[],"categories_segments":[],"categories_sizes":[],"default_left":[1,0,1,0,0,0,0,1,0,0,1,1,1,0,0,1,0,1,0,0,0,0,0,0,1,0,0,0,0,1,0,0,0,1,0,0,0,0,0],"id":8,"left_children":[1,3,5,-1,7,9,11,13,-1,15,17,19,21,23,-1,25,-1,27,-1,-1,29,-1,-1,-1,31,-1,-1,-1,-1,33,-1,-1,-1,35,-1,37,-1,-1,-1],"loss_changes":[3.9415253E1,7.703354E0,5.091947E1,0E0,1.7927704E0,2.5034286E1,2.802888E1,3.1676407E0,0E0,1.3309641E1,4.635605E0,1.7488838E1,6.5695305E0,1.9675369E0,0E0,9.869804E0,0E0,1.9554901E0,0E0,0E0,1.2472413E1,0E0,0E0,0E0,8.8269806E-1,0E0,0E0,0E0,0E0,1.1774048E1,0E0,0E0,0E0,6.7456007E0,0E0,9.298981E0,0E0,0E0,0E0],"parents":[2147483647,0,0,1,1,2,2,4,4,5,5,6,6,7,7,9,9,10,10,11,11,12,12,13,13,15,15,17,17,20,20,24,24,29,29,33,33,35,35],"right_children":[2,4,6,-1,8,10,12,14,-1,16,18,20,22,24,-1,26,-1,28,-1,-1,30,-1,-1,-1,32,-1,-1,-1,-1,34,-1,-1,-1,36,-1,38,-1,-1,-1],"split_conditions":[2.3044171E0,3.664231E-13,5.7085E-1,-7.2222225E-2,1.5213676E2,4.7854256E10,1.27569046E2,8.083334E0,-1.9814815E-1,1.392263E1,9.916666E0,5.223214E1,7.71586E-1,5E-1,-9.69697E-2,4.2712345E1,1E-1,1.1308241E0,-8.461539E-2,-9.69697E-2,2.05E1,-1.8235295E-1,-4.1666668E-2,-1.21212125E-1,3.798077E-1,-0E0,-1.76E-1,-1.35E-1,-1.9534884E-1,5.5850255E-1,1.7058824E-1,-1.9767442E-1,-1.3333334E-1,1.0135248E0,-1E-1,2.080145E-1,-3.809524E-2,1.7931035E-1,3.181818E-2],"split_indices":[71,147,57,0,181,142,181,19,0,144,19,18,32,92,0,157,0,32,0,0,104,0,0,0,40,0,0,0,0,45,0,0,0,32,0,166,0,0,0],"split_type":[0,0,0,0,0,0,0,0,0,0,0,0,0,0,0,0,0,0,0,0,0,0,0,0,0,0,0,0,0,0,0,0,0,0,0,0,0,0,0],"sum_hessian":[8.07E2,3.11E2,4.96E2,3.5E1,2.76E2,2.63E2,2.33E2,1.69E2,1.07E2,7.1E1,1.92E2,1.77E2,5.6E1,1.37E2,3.2E1,5E1,2.1E1,1.67E2,2.5E1,3.2E1,1.45E2,3.3E1,2.3E1,3.2E1,1.05E2,2.6E1,2.4E1,3.9E1,1.28E2,1.12E2,3.3E1,8.5E1,2E1,9.1E1,2.1E1,7.1E1,2E1,2.8E1,4.3E1],"tree_param":{"num_deleted":"0","num_feature":"192","num_nodes":"39","size_leaf_vector":"0"}},{"base_weights":[-3.74183E-1,-1.0223642E-1,-6.566667E-1,-8.269231E-1,4.1984733E-2,-5.190476E-1,-9.6703297E-1,-9.6875E-1,-5.714286E-1,2.2885571E-1,-5.645161E-1,-7.218045E-1,-1.6666667E-1,-7.2E-1,3.6158192E-1,-8.1578946E-1,-1.6E-1,-4.390244E-1,-8.3870965E-1,4.8E-1,-4.6296296E-1,5.945946E-1,-2.9850746E-2,-8.5714287E-1,-0E0,-5E-1,-9.305556E-1,-7.352941E-1,-0E0,7.126437E-1,1.6E-1,2.826087E-1,-6.818182E-1,2.0833333E-1,8.90625E-1,7.826087E-1,-2.0833333E-1,7.2E-1,9.75E-1],"categories":[],"categories_nodes":[],"categories_segments":[],"categories_sizes":[],"default_left":[1,0,1,0,1,1,0,0,0,1,1,1,0,0,1,0,0,0,1,0,1,0,0,0,0,0,0,0,0,1,0,0,0,0,1,0,0,0,0],"id":9,"left_children":[1,3,5,7,9,11,-1,-1,-1,13,15,17,19,-1,21,-1,-1,23,25,-1,27,29,31,-1,-1,-1,-1,-1,-1,33,-1,35,-1,-1,37,-1,-1,-1,-1],"loss_changes":[4.6946976E1,3.274796E1,1.2311768E1,1.3306999E0,2.9823595E1,1.4883709E1,0E0,0E0,0E0,2.557388E1,6.1714096E0,4.028557E0,1.5167407E1,0E0,1.6161701E1,0E0,0E0,7.5261326E0,2.427864E0,0E0,6.808279E0,5.580662E0,1.3841484E1,0E0,0E0,0E0,0E0,0E0,0E0,7.6233864E0,0E0,1.1454711E1,0E0,0E0,2.1937561E-1,0E0,0E0,0E0,0E0],"parents":[2147483647,0,0,1,1,2,2,3,3,4,4,5,5,9,9,10,10,11,11,12,12,14,14,17,17,18,18,20,20,21,21,22,22,29,29,31,31,34,34],"right_children":[2,4,6,8,10,12,-1,-1,-1,14,16,18,20,-1,22,-1,-1,24,26,-1,28,30,32,-1,-1,-1,-1,-1,-1,34,-1,36,-1,-1,38,-1,-1,-1,-1],"split_conditions":[7.38625E2,-4.349766E-1,8.786997E-1,8.808107E1,9.871117E-1,9.196428E0,-1.934066E-1,-1.9375001E-1,-1.1428572E-1,6.29183E0,1.0833333E2,8.345476E2,1.6825407E1,-1.4400001E-1,4.9873393E-2,-1.631579E-1,-3.2E-2,6.920175E1,1.0626256E2,9.6E-2,2.5166667E2,1.5023804E1,1.7116189E12,-1.7142858E-1,-0E0,-1E-1,-1.8611112E-1,-1.4705883E-1,-0E0,1.0807183E0,3.2E-2,2.2263126E-1,-1.3636364E-1,4.1666668E-2,1.1668708E0,1.5652174E-1,-4.1666668E-2,1.4400001E-1,1.9500001E-1],"split_indices":[1,77,83,91,83,19,0,0,0,88,16,1,124,0,173,0,0,121,159,0,16,124,139,0,0,0,0,0,0,72,0,102,0,0,72,0,0,0,0],"split_type":[0,0,0,0,0,0,0,0,0,0,0,0,0,0,0,0,0,0,0,0,0,0,0,0,0,0,0,0,0,0,0,0,0,0,0,0,0,0,0],"sum_hessian":[6.11E2,3.12E2,2.99E2,5.1E1,2.61E2,2.09E2,9E1,3.1E1,2E1,2E2,6.1E1,1.32E2,7.7E1,2.4E1,1.76E2,3.7E1,2.4E1,4E1,9.2E1,2.4E1,5.3E1,1.1E2,6.6E1,2E1,2E1,2.1E1,7.1E1,3.3E1,2E1,8.6E1,2.4E1,4.5E1,2.1E1,2.3E1,6.3E1,2.2E1,2.3E1,2.4E1,3.9E1],"tree_param":{"num_deleted":"0","num_feature":"192","num_nodes":"39","size_leaf_vector":"0"}},{"base_weights":[-2.4608502E-1,5.5813956E-1,-3.308642E-1,1.904762E-1,8.695652E-1,-5.24E-1,-1.923077E-2,-6.142857E-1,-4.8780486E-2,6.0465115E-1,-2.5438598E-1,-7.1875E-1,-2.7450982E-1,-5.714286E-1,4.7619048E-1,2.857143E-1,8.695652E-1,-8.648649E-1,3.846154E-2,-2.9166666E-1,-7.883212E-1,-5.8064514E-1,1.904762E-1,3.9215687E-1,-6.0714287E-1,-8.6725664E-1,-4E-1,-9.52381E-2,7.096774E-1,-5.714286E-1,-9.247312E-1,-9.8507464E-1,-7.407407E-1],"categories":[],"categories_nodes":[],"categories_segments":[],"categories_sizes":[],"default_left":[1,1,0,0,0,0,1,0,0,0,1,1,1,0,0,0,0,0,1,0,1,0,0,1,0,0,0,0,0,0,1,0,0],"id":10,"left_children":[1,3,5,-1,-1,7,9,11,13,15,17,19,21,-1,-1,-1,-1,-1,23,-1,25,-1,-1,27,-1,29,-1,-1,-1,-1,31,-1,-1],"loss_changes":[3.06618E1,4.757861E0,2.4365887E1,0E0,0E0,1.0696426E1,2.3040432E1,7.256531E0,1.1521486E1,3.3846588E0,2.0413868E1,4.5241013E0,7.37038E0,0E0,0E0,0E0,0E0,0E0,1.8049181E1,0E0,3.8524628E0,0E0,0E0,7.9602427E0,0E0,1.392868E0,0E0,0E0,0E0,0E0,3.0285645E-1,0E0,0E0],"parents":[2147483647,0,0,1,1,2,2,5,5,6,6,7,7,8,8,9,9,10,10,11,11,12,12,18,18,20,20,23,23,25,25,30,30],"right_children":[2,4,6,-1,-1,8,10,12,14,16,18,20,22,-1,-1,-1,-1,-1,24,-1,26,-1,-1,28,-1,30,-1,-1,-1,-1,32,-1,-1],"split_conditions":[4.8077127E2,3.1627857E1,1.85E1,3.809524E-2,1.7391305E-1,1.8354305E0,7.0951807E2,3.95E1,2.0454936E-1,4.002059E-1,5.1775208E1,1.1387281E-3,1.1568317E0,-1.1428572E-1,9.52381E-2,5.714286E-2,1.7391305E-1,-1.7297298E-1,9.4178577E2,-5.8333334E-2,1.3717566E2,-1.1612903E-1,3.809524E-2,-1.7336385E-10,-1.2142857E-1,5.3419745E-1,-8.0000006E-2,-1.904762E-2,1.4193548E-1,-1.1428572E-1,2.4783106E0,-1.9701493E-1,-1.4814815E-1],"split_indices":[1,47,104,0,0,63,1,110,77,101,79,25,34,0,0,0,0,0,1,0,177,0,0,151,0,101,0,0,0,0,60,0,0],"split_type":[0,0,0,0,0,0,0,0,0,0,0,0,0,0,0,0,0,0,0,0,0,0,0,0,0,0,0,0,0,0,0,0,0],"sum_hessian":[4.46E2,4.2E1,4.04E2,2E1,2.2E1,2.49E2,1.55E2,2.09E2,4E1,4.2E1,1.13E2,1.59E2,5E1,2E1,2E1,2E1,2.2E1,3.6E1,7.7E1,2.3E1,1.36E2,3E1,2E1,5E1,2.7E1,1.12E2,2.4E1,2E1,3E1,2E1,9.2E1,6.6E1,2.6E1],"tree_param":{"num_deleted":"0","num_feature":"192","num_nodes":"33","size_leaf_vector":"0"}},{"base_weights":[-2.3453608E-1,3.6764705E-1,-3.613707E-1,2.9411765E-2,6.857143E-1,-8.8135594E-1,-2.43346E-1,-6.666667E-1,-9.74359E-1,-4.7945205E-2,-4.8305085E-1,-4.6153846E-1,2.804878E-1,-6.666667E-1,1.923077E-1,-0E0,-8.108108E-1,-2.3333333E-1,5.660377E-1,-8.382353E-1,-1.923077E-1,4.5454547E-2,9.0625E-1,-5.217391E-1,-9.782609E-1],"categories":[],"categories_nodes":[],"categories_segments":[],"categories_sizes":[],"default_left":[1,1,0,0,0,1,1,0,0,1,0,0,1,1,0,0,0,0,0,1,0,0,0,0,0],"id":11,"left_children":[1,3,5,-1,-1,7,9,-1,-1,11,13,15,17,19,-1,-1,-1,-1,21,23,-1,-1,-1,-1,-1],"loss_changes":[2.9767397E1,7.2953787E0,1.9485653E1,0E0,0E0,5.284653E-1,1.229537E1,0E0,0E0,1.9961758E1,1.4760975E1,1.0478169E1,1.2163246E1,7.4076195E0,0E0,0E0,0E0,0E0,9.3455715E0,2.5031967E0,0E0,0E0,0E0,0E0,0E0],"parents":[2147483647,0,0,1,1,2,2,5,5,6,6,9,9,10,10,11,11,12,12,13,13,18,18,19,19],"right_children":[2,4,6,-1,-1,8,10,-1,-1,12,14,16,18,20,-1,-1,-1,-1,22,24,-1,-1,-1,-1,-1],"split_conditions":[4.789355E-2,3.9537418E2,8.639861E0,5.882353E-3,1.3714287E-1,1.1328125E2,8.15E1,-1.3333334E-1,-1.948718E-1,5.80119E1,8.2583885E8,-2.7653027E0,1.3154681E2,1.4821615E0,3.846154E-2,-0E0,-1.6216217E-1,-4.6666667E-2,8.202269E-1,7.9755505E2,-3.846154E-2,9.09091E-3,1.8125E-1,-1.04347825E-1,-1.9565217E-1],"split_indices":[157,36,106,0,0,20,81,0,0,85,140,29,10,65,0,0,0,0,63,1,0,0,0,0,0],"split_type":[0,0,0,0,0,0,0,0,0,0,0,0,0,0,0,0,0,0,0,0,0,0,0,0,0],"sum_hessian":[3.87E2,6.7E1,3.2E2,3.3E1,3.4E1,5.8E1,2.62E2,2E1,3.8E1,1.45E2,1.17E2,6.4E1,8.1E1,9.2E1,2.5E1,2.8E1,3.6E1,2.9E1,5.2E1,6.7E1,2.5E1,2.1E1,3.1E1,2.2E1,4.5E1],"tree_param":{"num_deleted":"0","num_feature":"192","num_nodes":"25","size_leaf_vector":"0"}},{"base_weights":[-2.1917808E-1,-7.5E-1,-9.731544E-2,-3.75E-1,-9.3333334E-1,3.030303E-1,-2.95E-1,9.655172E-1,2.8169014E-2,-4.9264705E-1,1.2307692E-1,-3.8636363E-1,6.785714E-1,-1.3235295E-1,-8.405797E-1,-3.9285713E-1,5E-1,-7.7272725E-1,-0E0,-7.826087E-1,1.9565217E-1,-4.7619048E-1,-9.7959185E-1,5.416667E-1,-1.7391305E-1],"categories":[],"categories_nodes":[],"categories_segments":[],"categories_sizes":[],"default_left":[0,1,1,0,0,0,1,0,0,1,1,0,0,1,0,0,0,0,0,0,1,0,0,0,0],"id":12,"left_children":[1,3,5,-1,-1,7,9,-1,11,13,15,17,-1,19,21,-1,-1,-1,-1,-1,23,-1,-1,-1,-1],"loss_changes":[2.35379E1,4.325001E0,2.3673763E1,0E0,0E0,1.7999912E1,1.658697E1,0E0,1.9404703E1,1.6937447E1,1.2836813E1,6.568182E0,0E0,1.4656651E1,3.0286903E0,0E0,0E0,0E0,0E0,0E0,5.976449E0,0E0,0E0,0E0,0E0],"parents":[2147483647,0,0,1,1,2,2,5,5,6,6,8,8,9,9,10,10,11,11,13,13,14,14,20,20],"right_children":[2,4,6,-1,-1,8,10,-1,12,14,16,18,-1,20,22,-1,-1,-1,-1,-1,24,-1,-1,-1,-1],"split_conditions":[2.6676125E1,5.3398376E2,6.158334E2,-7.5E-2,-1.8666667E-1,1.203037E1,1.6339144E-1,1.9310345E-1,5.91123E-1,3.0212803E1,4.958325E-1,4.932478E-1,1.3571428E-1,4.8885166E1,8.890447E1,-7.857143E-2,1E-1,-1.5454546E-1,-0E0,-1.5652174E-1,7.691666E2,-9.52381E-2,-1.9591837E-1,1.0833334E-1,-3.478261E-2],"split_indices":[103,1,13,0,0,106,15,0,181,157,50,77,0,79,181,0,0,0,0,0,13,0,0,0,0],"split_type":[0,0,0,0,0,0,0,0,0,0,0,0,0,0,0,0,0,0,0,0,0,0,0,0,0],"sum_hessian":[3.64E2,6.7E1,2.97E2,2.3E1,4.4E1,9.8E1,1.99E2,2.8E1,7E1,1.35E2,6.4E1,4.3E1,2.7E1,6.7E1,6.8E1,2.7E1,3.7E1,2.1E1,2.2E1,2.2E1,4.5E1,2E1,4.8E1,2.3E1,2.2E1],"tree_param":{"num_deleted":"0","num_feature":"192","num_nodes":"25","size_leaf_vector":"0"}}]},"name":"gbtree"},"name":"dart","weight_drop":[1E0,1E0,1E0,1E0,1E0,1E0,1E0,1E0,1E0,1E0,1E0,1E0,1E0]},"learner_model_param":{"base_score":"5E-1","num_class":"0","num_feature":"192","num_target":"1"},"objective":{"name":"binary:hinge"}},"version":[1,6,1]}